const float initialWeights[] = { -0.0143126, -0.0493344, -0.0563397, -0.00469651, -0.0135351, 0.0775453, -0.0908379, 0.0739167, 0.018478, 0.0476076, -0.0801759, -0.0999525, -0.0792483, -0.0684106, -0.0770531, -0.0954003, -0.0937543, 0.0578064, 0.0648849, 0.0480325, 0.0648254, 0.000184156, -0.0877378, -0.00791278, 0.0932202, 0.0229518, -0.0424873, 0.0411186, -0.0195319, -0.0574449, -0.0897723, -0.0325631, 0.0716113, -0.0498078, -0.0783522, 0.0324561, 0.0898412, -0.0826511, 0.0611369, -0.033685, 0.0450454, 0.0612032, 0.0155982, 0.00534879, -0.0251519, -0.0661301, -0.0419074, 0.0756547, -0.0467586, -0.0538911, -0.0727171, -0.094658, 0.0141312, 0.0632518, -0.078983, 0.0183183, 0.0172303, 0.0186588, -0.0657953, 0.0135396, -0.0514952, -0.0603784, 0.0856619, 0.0684149, -0.000419773, -0.00114542, -0.0292265, -0.0698064, -0.0767807, -0.0108882, 0.0361864, -0.0195159, 0.0638817, -0.0913593, 0.0554334, 0.0570229, -0.0507676, 0.0458147, 0.0324105, 0.0316399, 0.0985333, -0.0296706, -0.082698, 0.093008, -0.00666966, -0.0381273, -0.0353251, 0.0235489, 0.0635636, 0.0544042, 0.000575244, -0.0820834, 0.0652025, -0.074632, 0.023188, 0.0697086, -0.0227314, 0.00774777, -0.050635, 0.0509678, -0.00905757, -0.0410689, 0.0256935, 0.011462, -0.0545358, -0.020156, -0.00973261, 0.058739, -0.0781846, -0.0739474, -0.082441, 0.0710919, -0.0767874, 0.0961925, 0.0632193, 0.0943554, 0.0127239, 0.0162883, -0.072825, 0.0157448, -0.0691877, 0.0668567, 0.0726763, -0.0906738, 0.0196979, -0.00217926, 0.0168055, 0.0147338, -0.0550849, 0.0521263, 0.0356674, 0.0976559, -0.0833871, -0.0186476, 0.0862684, -0.0992874, -0.0254448, -0.0217327, 0.043529, 0.093839, -0.0740304, -0.0404886, -0.0602759, -0.0878736, -0.0367436, 0.0254897, -0.0374267, -0.0637371, 0.0113662, -0.071657, 0.0452212, 0.0344456, -0.0116833, 0.0301571, -0.0021354, -0.0612607, 0.0852133, -0.0719901, -0.0974836, -0.0587725, -0.0712336, 0.032235, 0.0296938, 0.0767671, -0.0984724, 0.00670334, -0.0950217, 0.0895461, -0.064425, 0.0901908, 0.041041, -0.0494074, 0.005367, 0.0333634, 0.0489495, 0.0560112, 0.0262938, 0.077074, -0.0270007, -0.0537353, -0.051538, 0.0104259, -0.00174282, -0.021404, -0.0834019, -0.039267, -0.0821223, 0.0974385, -0.0925415, 0.00833044, -0.0981519, 0.00746676, -0.00972733, -0.0971767, -0.0349348, 0.0248796, 0.0320612, 0.00690331, -0.0805567, 0.0139201, 0.0236494, -0.0475854, 0.00441569, 0.0387405, -0.0249306, -0.0470439, 0.0728325, 0.0113318, 0.0468424, -0.0598954, -0.100403, 0.100017, -0.0168761, -0.0051757, -0.0249803, -0.05022, -0.0269535, 0.0155577, -0.0359039, -0.0974543, 0.0615917, -0.0260669, -0.0260448, 0.0294745, -0.0911622, 0.0184957, -0.092436, -0.0203734, 0.042741, -0.0299336, -0.0475291, -0.0710671, -0.0150676, -0.072508, 0.058061, -0.0683417, 9.42424e-05, 0.0227335, 0.0611331, -0.0391421, 0.099256, 0.0226617, -0.0404726, -0.0347532, 0.0193987, -0.0348171, 0.0778438, -0.0942875, -0.0901831, -0.00209943, 0.00816813, 0.0732938, 0.0569334, -0.0883949, -0.0969802, -0.0700718, 0.0542481, 0.0738608, -0.0805588, -0.0678784, 0.0236989, -0.0563727, 0.0481207, 0.0544845, -0.0375742, -0.0596492, 0.0692407, 0.000182174, 0.0330314, 0.0138747, -0.089886, -0.00903846, 0.0809718, 0.00388803, 0.0834521, -0.0134509, -0.0730959, -0.0138385, -0.0896396, -0.0407101, 0.00435819, 0.0563279, 0.0410834, 0.0254694, 0.071978, 0.0803477, -0.0308023, 0.0323389, -0.0405734, -0.0470386, -0.0612326, -0.0805615, -0.0449405, -0.0593455, -0.0663059, 0.0445631, 0.00920849, -0.0149886, -0.0583377, 0.0736291, -0.10055, 0.0538888, 0.0929504, -0.0982095, -0.0927859, -0.0547121, 0.0103297, -0.0154179, -0.0360279, -0.0695852, -0.0242543, 0.0191251, -0.0945206, -0.0175987, 0.0494375, 0.0387061, 0.0681857, -0.0880521, 0.0842011, 0.0912644, 0.027976, -0.00985622, -0.100678, 0.0641105, -0.065655, 0.0280823, -0.00997166, 0.0164299, 0.00171216, -0.0128853, -0.0197316, 0.0301685, -0.0349044, 0.0269118, -0.0904354, 0.0463869, -0.0728544, 0.0429088, 0.0165449, -0.0274208, 0.0936879, -0.045796, -0.0208205, -0.0151214, -0.041942, 0.0898206, -0.0433086, 0.0442061, -0.0332014, -0.0479401, 0.0373379, -0.0373296, 0.0275369, -0.0835563, -0.0190157, -0.0947635, 0.024289, 0.0935384, -0.0644278, 0.0191985, -0.0305234, -0.000934616, -0.0149344, 0.0576469, -0.0728543, -0.00661107, 0.0328738, -0.0866912, 0.0811197, -0.0872907, 0.0102982, 0.000501499, 0.0592342, 0.0840914, -0.00549301, -0.0276071, 0.0256331, 0.0157593, 0.0921476, -0.0883552, -0.0590331, -0.00547214, -0.0637081, -0.0834371, -0.00593296, 0.00159408, 0.0456521, 0.0213712, -0.0499302, -0.0649316, -0.051996, 0.0416503, -0.0350087, -0.0148378, -0.0108382, 0.026293, -0.0265775, 0.0989154, 0.0480524, -0.0859302, 0.0169271, -0.00794526, -0.00562933, 0.0894517, -0.0749844, -0.0162281, -0.0277065, -0.0640176, 0.0457115, 0.0458541, -0.00187629, -0.00477029, -0.0311646, 0.0593268, 0.0327554, 0.0620179, 0.00958137, -0.043456, 0.0849458, 0.0295009, 0.0897684, 0.067834, -0.0971894, -0.00232904, 0.0911811, -0.0363011, -0.0790568, -0.0762121, 0.04233, 0.0152006, 0.012998, 0.0302013, 0.0668582, -0.000700623, -0.00349239, 0.0616285, -0.0119834, 0.0478628, 0.0401551, 0.0701985, 0.0867444, 0.0418376, 0.0712195, -0.0212536, -0.0800324, -0.0721418, -0.0859516, -0.00916804, -0.0115222, -0.0112728, -0.0869412, -0.0533444, 0.0871886, -0.0163159, -0.0584877, -0.067304, -0.0197826, 0.0844959, 0.0527845, 8.58977e-05, -0.062321, 0.0783168, 0.00467172, 0.0163133, -0.0387299, 0.0760505, 0.0300833, -0.0293582, 0.0227677, 0.0118512, -0.0187536, 0.0506788, 0.0743452, 0.00803166, -0.0247991, -0.00554884, -0.0147531, 0.0843484, -0.0563714, 0.095496, 0.0343476, -0.0963, -0.096851, -0.0906446, 0.021738, -0.0891993, -0.0701384, 0.0286557, 0.0305669, -0.026577, 0.0295146, 0.072817, 0.0320531, -0.0790492, 0.0158344, -0.077895, 0.0721843, 0.00517371, 0.0847427, 0.0214865, -0.0556866, 0.0231677, -0.0280253, 0.0217885, -0.00551319, -0.0466509, 0.0179285, 0.0349201, 0.0341536, 0.058002, -0.0387891, -0.0978573, -0.0341859, -0.027778, -0.014966, -0.0758344, 0.071969, -0.0949278, -0.0630449, 0.0647362, -0.0422631, 0.0540074, 1.80006e-05, 0.0148948, -0.000488654, -0.0381049, -0.000570551, -0.0093229, -0.0451212, 0.0804403, 0.0460266, -0.0660529, 0.0380755, 0.0906296, 0.0824917, -0.0794524, -0.0996937, 0.0170258, -0.0801167, -0.0459532, 0.0329072, -0.0647193, -0.074868, -0.0868507, -0.0418216, 0.0361357, 0.0835174, -0.0119261, -0.0745425, -0.054155, 0.0246533, -0.0746805, -0.00569966, 0.0730509, -0.0375691, 0.0574684, -0.090613, 0.0418147, -0.0912643, 0.0180864, 0.02711, -0.0889055, -0.0769581, -0.0683652, 0.0176445, 0.0346619, -0.040113, 0.0826743, -0.0137955, -0.0803405, -0.00532511, -0.0205249, 0.0653346, -0.0774095, -0.0946739, -0.00518025, 0.0464414, -0.0709542, -0.033085, -0.0078622, -0.0825301, 0.059985, -0.0805154, 0.0411564, 0.00857951, -0.00163393, -0.0750903, 0.0805596, -0.00480066, 0.0637341, 0.0663461, 0.0405759, -0.00081145, -0.00324317, 0.0139404, 0.0430791, -0.0389627, 0.0428928, -0.0793625, -0.0774925, -0.00507416, -0.0712493, 0.0904566, -0.0114359, 0.0522093, 0.0816831, -0.0817528, -0.0612026, -0.0926903, 0.0462945, 0.0891195, -0.0127049, -0.019933, 0.0741004, -0.0383053, 0.0734346, 0.0893888, 0.065368, 0.100247, -0.0560782, -0.0529861, -0.0245149, 0.0299506, -0.080748, 0.0164948, -0.0244968, 0.0678307, 0.078154, -0.0925698, 0.0818179, -0.000598259, -0.0462018, 0.0589182, -0.0175131, 0.0966122, -0.0775545, 0.00326093, -0.0631391, 0.0291885, -0.0891893, -0.0039029, -0.0397808, 0.0676622, 0.0327156, 0.0256325, -0.0405519, -0.0249663, 0.0738362, 0.0860845, 0.0312368, 0.0339315, 0.0232188, -0.0762651, 0.071616, 0.0244067, -0.100737, 0.0783094, 0.0444745, -0.0925565, 0.0543046, -0.0993802, -0.0119838, -0.08529, 0.089513, -0.0829504, -0.0055173, -0.0999795, -0.0839151, 0.100333, 0.0975155, -0.0509204, -0.0646075, 0.0117225, 0.0893471, -0.0546463, -0.0820315, -0.0186483, -0.0162731, 0.0077154, -0.0632175, -0.0854392, -0.0313844, -0.0543247, -0.0224546, -0.00962925, 0.0848109, 0.0713905, -0.0019238, -0.0513599, 0.0807184, 0.0690076, 0.00516312, -0.0596382, -0.0414799, -0.0272335, 0.0090088, -0.0803044, -0.089484, 0.000836335, 0.0717822, -0.0700402, -0.0375771, 0.0559681, 0.0301499, -0.0266216, 0.0437821, 0.0072663, 0.0308218, -0.0865351, -0.0235449, -0.0132139, 0.0168871, 0.0402642, 0.0826409, -0.0903539, -0.0685267, -0.0930843, -0.0155616, -0.0241317, 0.00600953, 0.0520059, 0.0309836, 0.00573987, 0.0960496, 0.0199379, 0.0409035, 0.0807588, 0.00244179, -0.0557376, -0.00974256, 0.0987924, 0.0360672, 0.0724884, -0.0568754, -0.0935123, -0.0334196, 0.000857979, 0.0933844, 0.0650087, 0.0827291, -0.0694533, -0.0726989, 0.0961373, -0.00306138, -0.0668337, -0.00790544, -0.0838477, 0.0134618, -0.0691921, -0.0681694, 0.0930788, 0.0658332, -0.0598974, -0.0955716, -0.0256826, -0.0742223, -0.0962886, -0.0763533, 0.00131296, 0.0288553, -0.00767224, 0.0340193, 0.0656575, 0.00187647, 0.00867549, -0.0612896, -0.0384845, -0.018579, -0.0623532, 0.0101349, -0.0962046, 0.0663053, 0.00291339, 0.00426283, 0.0190329, -0.0277096, -0.0190512, -0.0882596, 0.0167704, -0.0589101, 0.0147232, 0.0817996, -0.0808996, -0.09697, 0.0842969, -0.0382206, -0.0764929, 0.0279351, 0.00126871, 0.0520725, 0.00763886, 0.0259967, 0.0698369, -0.0570644, 0.0914194, -0.0649446, 0.0556795, -0.0781313, 0.0250369, 0.0237294, -0.0944508, -0.042508, -0.0726938, -0.0181161, -0.0747165, 0.0822567, -0.0911033, -0.0996444, -0.0765532, 0.0102682, 0.086926, -0.0562854, -0.0508502, -0.0682726, 0.0103851, -0.0946179, 0.00920013, -0.0987257, 0.0381815, 0.0450716, -0.100203, 0.00362513, -0.0444251, -0.0195862, 0.0620482, -0.0701678, 0.0417569, 0.0437575, 0.0342009, 0.0473248, 0.0562379, -0.0174779, -0.0359572, -0.0196982, 0.0754688, 0.0170358, 0.0741814, -0.0610459, 0.0412963, -0.0772735, 0.0171232, -0.0914901, -0.0850219, 0.0523703, 0.0153714, 0.0817481, -0.0592742, 0.0125389, 0.0657786, -0.0040772, -0.0228098, -0.0382659, 0.0131533, 0.0144572, -0.0956656, 0.00243081, 0.0626306, -0.0119507, 0.0520567, -0.00346526, -0.0772854, 0.0246186, -0.0954061, -0.10033, -0.0798484, -0.0114955, 0.0703509, -0.0680704, -0.100264, 0.00969943, 0.0633302, -0.0373019, -0.0558515, 0.000213541, -0.091005, -0.0786226, 0.0249991, 0.0534782, 0.043925, 0.0809552, 0.0102998, -0.0725365, 0.0445785, -0.0624758, 0.0389184, -0.00600282, -0.0936309, -0.0136417, -0.0776775, -0.0509338, -0.0978143, -0.0182334, 0.0341334, -0.0869683, -0.0560644, 0.0576211, -0.0965896, -0.0234234, -0.0351609, 0.034559, 0.0166931, -0.056077, -0.0933504, 0.084138, 0.0573371, -0.0395486, 0.0815177, 0.0406732, -0.0523587, -0.00830627, 0.00746258, 0.0446309, 0.0521763, -0.0334141, 0.0992434, -0.0528601, -0.0961589, 0.0404335, 0.019881, 0.0351924, -0.0673827, -0.044553, -0.0994409, 0.0603535, 0.0204399, 0.0659324, -0.00391741, 0.0809456, 0.0802064, -0.0226379, 0.0363831, 0.00379464, 0.0371754, 0.0985135, -0.0650524, 0.0208456, 0.0727629, -0.075257, -0.0166277, -0.0621135, 0.0105324, 0.0180974, -0.0345893, -0.0835378, 0.00781114, 0.0556112, -0.0528868, -0.0860029, 0.0247696, 0.0265647, 0.0924802, -0.0898298, -0.0863107, 0.0531089, -0.0648942, -0.0275276, -0.0714761, -0.0529657, 0.0403563, -0.0848295, 0.0624435, -0.0891417, 0.0557364, 0.0574552, -0.0489366, 0.0349158, -0.0108823, 0.00634716, 0.0343004, 0.0424529, 0.0821484, -0.0978652, 0.0365579, -0.0293975, 0.0552265, -0.0187272, -0.0442761, -0.0429582, -0.0712486, 0.0426916, -0.0627025, 0.0105259, 0.0760656, 0.0296019, -0.096182, -0.0117062, 0.0365668, -0.0104067, 0.0273434, 0.0217159, 0.0247334, -0.0725634, 0.0756546, -0.00435943, -0.00357886, 0.0483574, -0.0565279, -0.0160135, 0.0160954, 0.0484373, -0.0703456, 0.0134059, 0.0192673, -0.0597731, 0.0707628, -0.0581986, -0.0523628, 0.0970924, -0.0993762, -0.0051518, -0.0905434, 0.0355204, -0.0677822, -0.0231141, 0.0945019, -0.0829058, 0.0542528, 0.090133, 0.0758485, 0.0922819, 0.00776832, -0.0810905, 0.0604323, -0.024951, 0.015445, -0.0260987, 0.0400327, 0.0125857, -0.0794468, -0.0247149, -0.0754865, -0.047873, 0.0283869, -0.0783147, 0.0718349, 0.0472726, 0.0397173, 0.0243639, 0.0200915, -0.0319335, -0.018249, -0.046048, 0.00416404, 0.069, -0.0420768, -0.0155663, 0.00218014, -0.00344387, 0.0377981, 0.0388755, -0.0637969, 0.0437598, -0.0204083, -0.00194192, -0.0416427, -0.0716715, 0.0436159, 0.0611785, 0.0506045, -0.0114529, 0.0654524, -0.0139735, -0.0318979, 0.0183615, 0.0260035, -0.0116604, -0.0539218, 0.0483787, 0.092729, 0.064174, -0.00687448, 0.023638, -0.0728908, -0.0771011, 0.0651881, 0.000159569, 0.02093, -0.0803944, 0.062866, -0.0527608, -0.0815613, 0.098506, 0.0751288, 0.0574531, 0.0873521, -0.0978811, -0.0922556, -0.0161869, 0.0404443, -0.0223486, 0.10052, 0.0293401, 0.0465717, -0.0517634, 0.0882799, -0.064076, 0.000665441, -0.0117886, 0.0651207, 0.0584189, -0.0176592, 0.0337929, -0.00852741, -0.0374411, -0.043386, -0.0886739, -0.0675063, 0.0416365, -0.0829244, -0.0855266, -0.0106735, -0.100674, 0.0994851, -0.0222263, 0.0148135, -0.0600838, 0.0376858, 0.0748988, 0.0204101, 0.0783454, 0.0291855, -0.0915079, 0.0831686, -0.0982168, 0.0802553, 0.0281198, -0.0489605, -0.0126426, 0.0521193, -0.0463553, 0.0221613, -0.0746638, 0.0675097, 0.00372095, -0.0993218, 0.000951745, -0.0767572, -0.0404459, -0.021794, -0.0229852, -0.0620493, -0.0686828, -0.0970613, 0.037522, 0.0820914, 0.0287364, -0.0346552, 0.0403121, -0.0560112, 0.0320164, 0.086917, 0.0745838, -0.0172165, 0.0506941, 0.0601363, 0.0161002, -0.0295539, -0.0669123, 0.0689916, -0.0148013, 0.0159977, 0.0418703, -0.0748136, -0.0459964, -0.0056237, -0.00890996, 0.0812389, -0.0477005, -0.0126678, 0.0974539, 0.0617047, 0.00513699, 0.0726659, -0.00924456, -0.0565936, 0.0779051, 0.0309885, -0.0410109, 0.0566854, 0.054589, 0.0706084, -0.0731554, -0.0481524, 0.0821948, -0.0463304, 0.0568173, 0.0821425, 0.0162892, -0.0789449, 0.0442395, 0.0680865, -0.010384, 0.019611, 0.0639763, -0.0731739, 0.0816141, -0.00198531, 0.044544, -0.0970731, 0.0911886, 0.0624921, 0.0755778, 0.092357, 0.0381152, -0.0834079, -0.0248518, 0.0220621, -0.0956577, -0.0904539, -0.0378916, -0.0936735, -0.0684736, 0.0487926, -0.038679, 0.0926466, -0.00642141, -0.0331116, -0.0375215, -0.0797451, -0.0513152, 0.0757644, -0.0868243, 0.0064897, -0.0243276, -0.0376014, -0.0491139, 0.0355144, 0.0988024, -0.0828789, 0.0260533, 0.00521841, -0.0539945, -0.0254829, 0.00279601, 0.0579687, -0.0667684, 0.0908062, -0.0129986, 0.0070443, -0.0094066, -0.0718772, 0.0438877, -0.0536756, 0.0529819, -0.0649998, 0.0807313, 0.076778, -0.012146, -0.0338192, 0.0241514, 0.0929383, -0.0676352, -0.0628211, 0.0176104, -0.00206906, -0.0304151, 0.021104, 0.0983341, 0.0633462, -0.0982683, 0.0141377, -0.0722387, 0.0698051, -0.0462918, 0.0734085, 0.0370803, -0.049245, -0.064342, -0.100932, 0.0516078, 0.0372641, 0.097821, 0.0297428, -0.100601, -0.0677334, 0.0961682, 0.087491, 0.00764064, 0.066038, 0.0588606, 0.07908, -0.0410758, -0.00791979, -0.0322785, 0.0366087, -0.077683, 0.0531034, -0.0971661, -0.0986054, 0.0620139, 0.0367458, -0.0689915, 0.0811228, 0.0724653, 0.0402017, 0.0872539, 0.000590794, 0.0614812, -0.0421595, -0.07649, -0.028299, 0.0909247, -0.0379632, 0.0133706, -0.0119403, 0.0699947, 0.0497456, 0.0600656, -0.0818834, 0.0770503, -0.028533, -0.0157824, -0.0215912, 0.0667755, -0.059192, 0.0111764, 0.0733161, -0.0383893, -0.0838613, 0.0939747, 0.0906446, -0.0215198, 0.0773499, -0.0201986, -0.0852065, -0.0882396, 0.0992688, -0.00359601, 0.0160478, 0.0676356, 0.0980043, 0.0237785, -0.0169828, 0.0458518, 0.0773142, -0.0768349, 0.00449714, -0.00489377, -0.0296279, -0.0184948, 0.0101706, -0.0988055, -0.0358967, 0.0349307, 0.0154443, 0.0297758, 0.0779811, 0.0881167, 0.0752521, -0.079779, -0.020215, 0.0775615, -0.0119968, 0.0187097, -0.00218996, -0.0340711, 0.00952716, -0.0515999, 0.0649827, 0.0893897, -0.0352449, -0.0368443, 0.0176255, 0.0634325, 0.0812575, -0.0153546, 0.0675071, -0.0972183, -0.0346977, -0.0201463, -0.00530211, 0.00777809, 0.0305697, -0.00157285, 0.0486711, 0.100479, 0.08928, 0.0918333, -0.0464938, 0.0433491, 0.0559056, 0.057472, -0.0211024, 0.00924907, 0.071474, -0.0372169, -0.0238602, -0.0584043, -0.0196597, -0.0466131, 0.0873377, 0.0395778, -0.0797128, 0.0619498, -0.0156333, 0.00479447, -0.0190039, -0.0141007, -0.0231922, -0.0477351, 0.0695788, -0.0946785, -0.00653094, -0.0794832, 0.0387566, -0.00388318, 0.0259882, -0.0722694, -0.031381, -0.0566587, 0.057248, -0.0784125, 0.083569, -0.0402854, 0.0552186, 0.081582, 0.0417604, 0.0123416, 0.0400839, 0.0735593, -0.0478345, -0.0303274, -0.000551336, 0.0130938, -0.0808259, -0.0428479, -0.0900785, -0.0415004, -0.0969265, -0.0455043, 0.0079565, -0.0312223, -0.0916638, -0.0549445, -0.0467444, 0.0555763, -0.0473357, 0.0680657, -0.0734061, -0.0948155, -0.0663282, 0.0372354, -0.0219252, 0.0977163, 0.0137929, -0.0507705, -0.00238856, 0.0600235, -0.0503812, -0.0447853, -0.0192595, -0.0322957, 0.00677679, -0.100945, 0.098675, -0.0800043, 0.0720931, 0.0503812, -0.0120431, 0.0928237, 0.0525741, -0.0698, -0.0584993, -0.0810165, -0.0942375, -0.00898825, 0.0314186, -0.0174795, 0.0621419, 0.0962333, 0.0598079, 0.0872507, -0.0685286, 0.0605828, 0.0435509, 0.0127428, 0.0907312, -0.0968446, 0.00457655, 0.0764251, -0.0980127, -0.0338397, -0.0576718, 0.0352205, 0.0214443, -0.031864, -0.0761347, 0.0799474, -0.0180931, -0.0388267, -0.0525598, -0.041042, -0.0631099, -0.0235646, -0.0334585, -0.0297779, 0.09236, -0.0573387, -0.000265926, -0.0147524, 0.045103, -0.0809501, 0.0135805, 0.0549387, 0.000209711, -0.08155, -0.0491022, -0.0627218, 0.0687595, -0.0416406, 0.0905567, 0.0770859, 0.0958402, -0.0659772, -0.0544673, -0.0851114, 0.054349, 0.00570089, -0.0737491, 0.0674186, -0.0692713, -0.0178479, -0.0293814, 0.00252979, 0.0987185, -0.0894702, 0.000146985, -0.0484445, -0.0293974, -0.00374184, -0.0547871, 0.00598545, 0.0833111, 0.0257826, 0.0087605, 0.0925594, 0.0685929, 0.00231291, 0.0744211, 0.0249641, 0.0415419, -0.0862422, -0.00905928, 0.0900878, 0.0146693, -0.062217, 0.0992579, -0.0860133, 0.0216368, -0.0458554, -0.05267, -0.0310571, -0.0487152, 0.0438364, 0.0148105, -0.00120749, -0.0757734, 0.0968751, 0.0681095, -0.0703026, 0.024799, 0.0795623, 0.0156814, 0.0171428, 0.0131235, -0.0933493, 0.0247593, 0.066802, 0.029435, -0.100292, -0.00399908, 0.00750323, 0.0639479, -0.0353996, -0.0374685, 0.0845723, -0.0785651, -0.0756667, -0.0618576, 0.00576021, -0.0666709, -0.052532, -0.000957638, -0.0856156, 0.0267778, 0.0125705, 0.0455189, 0.00927062, 0.0255634, -0.0480152, 0.0831089, -0.0682151, 0.0222951, -0.0233689, 0.0947839, -0.0233735, -0.0572598, 0.0179452, 0.0499859, 0.0464962, -0.0308632, -0.0694851, 7.9453e-05, 0.00204999, 0.0925919, -0.0427161, -0.0350564, -0.0919623, -0.0854619, 0.0274371, 0.013006, 0.0171294, -0.0958507, 0.0455687, 0.0705891, -0.0639804, -0.0056811, 0.0256949, -0.0391678, 0.0677456, 0.0411327, -0.0954182, -0.0287175, 0.0577939, -0.0230909, 0.0068766, -0.0433463, -0.0611256, -0.0219918, -0.0101989, 0.0584563, 0.0179149, 0.0504752, -0.0425623, -0.0889813, -0.055261, 0.054488, 0.0744993, 0.00885249, 0.0749187, -0.0978913, 0.00252979, 0.0167404, 0.0345602, 0.0390252, 0.0419356, 0.0944555, -0.00297743, -0.0599005, 0.0508568, 0.0570644, -0.0214228, 0.0777345, -0.0450056, -0.0167782, 0.0413243, -0.0439423, -0.0212741, 0.0293857, -0.0887027, 0.00105508, -0.0557264, -0.0784734, -0.0510269, 0.0284578, 0.033741, 0.0774379, 0.0465321, 0.0238822, -0.0209587, 0.0721089, 0.0796392, 0.0583842, 0.0519084, 0.0229631, 0.0217756, -0.020871, 0.0440042, -0.0937364, -0.0308644, -0.0271923, 0.0492313, -0.0117444, 0.0869147, -0.000484824, -0.0871429, -0.0489362, -0.0170558, -0.00262098, 0.0604241, -0.0359796, 0.0513618, -0.0170943, 0.082793, -0.0430848, -0.0573451, 0.0956894, -0.0426269, -0.0516386, -0.0765707, 0.043194, 0.00876938, -0.0890995, -0.0381436, -0.00463267, 0.0819925, 0.100639, -0.0539489, -0.0748947, 0.055056, -0.0683858, 0.0575205, -0.0109654, 0.080906, 0.0411252, 0.0759268, 0.0553611, 0.00928167, 0.0307724, 0.0314538, -0.100575, 0.0481024, 0.0677181, -0.0563282, -0.0390345, -0.0234969, -0.035001, -0.0129584, 0.0946176, 0.0668721, -0.0637309, 0.0781737, -0.0667697, -0.00963243, 0.0544099, -0.0336272, -0.0089574, 0.0219325, -0.0712005, -0.0900283, 0.0171992, -0.015693, -0.0479097, -0.0193219, -0.0213452, -0.000519276, -0.0627349, 0.046957, -0.0604767, -0.0487466, 0.00476079, -0.0566088, 0.097134, 0.0614346, -0.0129695, 0.0105103, 0.070612, -0.00937863, 0.0330007, 0.0421492, -0.0992583, -0.060338, -0.0706038, 0.0144058, 0.056111, -0.0684, 0.0414133, -0.0527604, -0.0875314, 0.000493541, -0.0155264, 0.0272452, 0.10035, -0.0530415, 0.0464518, -0.0488885, -0.0847511, 0.0853373, 0.0791405, -0.0433754, -0.00878111, 0.00832942, -0.0269277, -0.0959764, 0.0875625, -0.0171971, -0.0922798, -0.0838227, 0.0630702, 0.0954903, 0.0215308, 0.0734156, -0.0586777, -0.0607418, -0.00705644, -0.0324183, -0.0756215, -0.0579227, 0.0773738, 0.0412042, -0.0706187, -0.069998, -0.0918556, -0.08745, 0.0441795, -0.058594, 0.0575452, 0.0212485, 0.0448483, 0.0869284, 0.0847282, -0.00947094, -0.0237499, 0.0564794, 0.0143526, 0.0357721, 0.0698339, 0.0162348, 0.00792858, 0.021852, -0.0558078, -0.00278492, -0.0808815, -0.0934296, -0.0725028, -0.0189459, -0.00756913, 0.0594924, 0.0370684, -0.0407892, -0.0872351, 0.0384726, -0.0654963, 0.0952559, -0.0697053, -0.0387979, -0.0514675, -0.0383693, 0.094191, -0.0808244, 0.0260801, 0.0498666, -0.0196976, -0.0131546, -0.0424839, -0.00694395, 0.0987961, 0.0439701, 0.0174011, -0.0651706, -0.071548, 0.0962103, 0.00680824, -0.0612616, 0.0164714, -0.0742557, -0.0120343, 0.064671, 0.00454261, -0.00674301, 0.0839043, 0.0296029, -0.0256616, -0.0686819, 0.0737882, -0.0367083, -0.0950189, -0.077193, 0.0599217, -0.00473484, -0.0421668, 0.0890969, 0.068069, 0.0972416, 0.0120493, -0.0383862, -0.0915544, 0.0529094, -0.0850161, -0.0611297, 0.098814, -0.018137, -0.0852089, 0.0972079, 0.0406753, -0.0782627, 0.0815196, -0.00456829, 0.0927951, 0.0617809, 0.0698632, 0.0989294, 0.0629769, 0.0379973, -0.00109014, 0.0571955, 0.0334844, 0.099896, -0.0398839, 0.050917, 0.0936793, 0.0771641, 0.00362281, -0.0796031, -0.0861485, -0.0924779, 0.0348025, -0.0107789, 0.0378653, -5.71087e-05, -0.0643234, -0.0761508, 0.0428828, -0.0740142, 0.0760205, 0.0990887, -0.0834984, -0.0285681, 0.0670639, 0.0620351, 0.0172075, 0.0230733, -0.0796006, -0.0983125, -0.0495929, -0.0208237, -0.0610384, -0.0165049, -0.0457244, -0.013593, -0.0186912, -0.0921181, -0.0533678, 0.0614544, 0.0714904, -0.0540607, 0.0235219, -0.0300088, -0.00790481, -0.0228667, 0.00730704, -0.0850284, 0.0294625, 0.00325934, 0.0910511, 0.0338622, -0.0827971, 0.0329241, 0.00251671, 0.0728933, 0.0553077, 0.0432287, 0.0732774, 0.0270568, 0.049168, 0.0765119, 0.0445297, 0.0818652, -0.0346369, 0.0501427, -0.0856505, 0.0421311, 0.069381, -0.0953081, 0.0814129, 0.0442835, 0.0393066, -0.0630792, 0.0933943, 0.0876959, 0.0122731, 0.0715411, 0.0945639, -0.00826322, -0.0229081, -0.0610424, -0.0977613, 0.0677658, -0.0229998, 0.0551343, 0.0979417, -0.0517797, 0.0866327, -0.0102066, -0.00871246, -0.00636955, 0.0112236, -0.0703198, -0.0565348, -0.0416603, -0.0442646, -0.0138507, -0.0253607, -0.0111481, 0.0328713, 0.000435062, 0.0581124, 0.0661306, -0.0653447, -0.0250202, -0.0815963, 0.0212998, -0.0980295, 0.094758, 0.0754825, 0.0728498, -0.0282388, 0.0599503, -0.0932171, 0.0940766, 0.0164729, 0.0148242, 0.0493165, -0.024142, -0.0203687, -0.0986953, -0.0218534, 0.0427188, 0.0917055, -0.0789848, 0.0347617, 0.0587705, -0.0156025, 0.0176211, -0.0845219, -0.0614892, 0.0124045, -0.0769835, 0.00329166, 0.0255223, 0.0649864, -0.0350338, 0.0977845, -0.0136214, -0.082305, -0.0908213, -0.0990264, 0.098174, 0.056221, -0.0493634, -0.011281, 0.0456858, 0.0169674, 0.0195278, -0.0813203, 0.0326198, -0.0826318, -0.0470828, 0.0858876, -0.0138365, 0.0374536, -0.0966694, 0.0356454, 0.0867758, 0.0949042, 0.0130223, 0.0999002, 0.0708921, 0.0399852, 0.0712581, 0.0510705, 0.099353, 0.0951845, 0.0195052, -0.00213604, 0.0783827, -0.0676779, 0.0858537, 0.0540459, 0.0710855, 0.0814082, -0.0868381, 0.0442399, 0.0817925, 0.0118416, 0.0279123, 0.0431173, -0.0106184, 0.0272274, -0.0806675, -0.0891618, -0.0906991, 0.0792362, -0.0543338, -0.0185096, -0.0581931, 0.0457272, 0.00781921, -0.000280485, -0.0385801, -0.0076015, -0.055299, -0.010948, 0.0357083, -0.0298928, -0.098891, -0.059888, -0.0383578, -0.0582181, -0.0729192, 0.0708846, 0.0763225, 0.00663961, -0.0937672, -0.0819329, -0.0882322, 0.062147, 0.0458339, 0.0497088, -0.0302197, 0.00353946, 0.00333043, -0.0606858, 0.0168449, 0.0777641, 0.00360944, -0.085338, -0.0383248, -0.037064, -0.0865712, 0.00485761, -0.0301133, 0.0868568, -0.0666568, -0.0743398, -0.0726046, -0.0985377, 0.0496451, -0.0987324, 0.0617259, -0.0129923, -0.012062, 0.0597922, 0.0255661, -0.076207, -0.0777345, -0.00281829, 0.0369274, 0.0199538, -0.0563247, 0.0681362, -0.0707801, -0.0608976, 0.0126029, -0.0828693, 0.0832143, 0.00546596, 0.0244646, 0.0156122, 0.0352598, 0.0872669, 0.00656992, 0.012794, -0.0747805, -0.0424543, 0.0245967, 0.0625593, -0.0728159, 0.0243552, -0.0597831, 0.0426262, 0.0428481, 0.0704908, 0.057447, 0.0741526, -0.0884672, -0.0290117, 0.0590543, -0.0767438, -0.0939921, 0.0450532, -0.0997244, 0.0861242, 0.0745587, 0.0229249, -0.0584647, 0.0329282, -0.0466517, -0.0996727, 0.023204, 0.0397138, 0.0777499, -0.039204, -0.043657, 0.00550905, 0.0779959, -0.0757876, -0.0879463, 0.0426067, 0.01415, 0.0419146, -0.0950193, 0.096174, 0.0719416, 0.0471193, -0.00995376, -0.0985078, 0.0708715, -0.0676896, -0.0345245, -0.0309175, 0.0378996, 0.0803818, 0.094194, -0.0696563, -0.00314197, -0.0779942, -0.0148879, 0.0280458, 0.085627, 0.0950173, 0.0395938, -0.010062, -0.0262266, -0.0856189, -0.000578083, 0.0263001, 0.0908174, 0.0475793, 0.0174887, 0.00801819, -0.0744715, -0.0273193, 0.0904932, -0.00658489, 0.0390975, 0.0464994, -0.0364771, 0.054001, 0.0584231, 0.0202371, -0.04125, -0.0769324, 0.0381321, -0.0772914, 0.0162734, 0.0871086, 0.064716, 0.0561032, 0.0197581, -0.0684274, 0.041928, -0.0894066, 0.00576278, 0.0805849, 0.0882314, -0.00925761, -0.00698167, 0.0427435, -0.0995656, 0.0847576, -0.0622233, 0.00734316, 0.033863, 0.0703763, -0.00402004, -0.0609815, 0.0511738, 0.00586157, -0.0950863, -0.0547939, 0.029917, -0.0336623, -0.0141148, -0.0798968, -0.0240755, 0.0145601, 0.012243, -0.0366761, -0.0671595, 0.0161327, -0.092489, 0.0102701, -0.0329433, -0.0557157, 0.0833486, 0.0590177, 0.0912867, -0.0269528, 0.0955439, -0.0141396, 0.0216031, 0.0358327, 0.0453349, -0.0706331, -0.0890847, 0.0621935, -0.0925757, -0.0264831, -0.0181097, -0.0208644, 0.00818227, -0.0372438, -0.0572928, 0.00392746, 0.0356142, -0.00696814, -0.0908548, 0.0983691, -0.0166467, 0.00844388, -0.0441703, -0.0672987, 0.0861375, -0.0688909, 0.0503308, -0.0630814, -0.0308949, 0.0867032, 0.096305, -0.0754971, -0.0937254, 0.0654276, 0.0287386, 0.00389325, 0.0213274, 0.0279175, -0.0782394, 0.029709, 0.0698146, -0.0868325, -0.0107726, -0.059649, -0.0978933, 0.0476211, -0.0313145, 0.0649178, -0.0325048, 0.0739357, 0.0216842, -0.0419245, 0.0863934, -0.0340594, 0.0415392, 0.0774193, 0.0157551, 0.00216169, -0.00344172, 0.00139143, -0.0419483, -0.100266, 0.0295952, -0.0527943, 0.0888046, 0.0699161, 0.0381892, -0.00764418, -0.0855227, -0.0352177, 0.0501973, -0.0493666, 0.0119509, 0.0478144, 0.0120272, -0.0653332, 0.061603, -0.00869472, -0.0708075, -0.0564191, -0.0283872, 0.0504989, -0.0580492, 0.0528437, -0.0511837, 0.0262865, 0.0585677, -0.023204, -0.0876282, 0.0217425, 0.0391254, 0.0832421, -0.0285626, -0.00626274, -0.0563028, 0.0548709, 0.0255305, -0.0116648, 0.0351214, -0.0803682, -0.00284306, -0.0128356, 0.02779, -0.0825016, 0.0154874, -0.0195541, 0.0731047, 0.0420946, -0.0708968, 0.0328371, -0.0105532, 0.0565885, -0.0557497, -0.0105885, -0.01494, 0.0497939, -0.0551622, 0.0792309, -0.0566196, -0.092821, 0.0849888, 0.0113757, 0.0060223, 0.0351711, -0.0273757, -0.0294378, -0.0819924, -0.0229641, -0.058754, 0.0223878, -0.0185777, -0.0474988, -0.0196185, 0.0715038, 0.0271504, 0.0893329, 0.0805354, -0.0832416, -0.0525862, -0.00445975, 0.0638363, 0.0865533, 0.00248552, 0.0464092, -0.0211551, -0.0944953, -0.082797, 0.0214826, -0.0622832, -0.0754255, 0.0519095, -0.0703403, 0.0941985, -0.0263016, 0.0395441, -0.0100483, 0.00632918, 0.0964445, -0.0723852, 0.0650351, 0.00705671, -0.095811, -0.0264684, -0.0593965, -0.0237186, -0.00799312, -0.0736729, 0.0247355, 0.0734389, 0.0608498, -0.0252433, 0.0590252, 0.0725919, 0.0354087, -0.0194087, 0.0879278, -0.0908532, 0.0993513, 0.0852393, 0.0146556, 0.0703029, 0.0783037, 0.0705788, -0.0282542, 0.0285834, -0.0780509, 0.0282112, -0.0180829, -0.00144409, 0.0306569, -0.0869308, 0.0663381, 0.00102194, 0.0680208, -0.0225047, 0.0308945, -0.0826894, -0.00965289, -0.0803324, 0.0506669, 0.0716795, -0.0387439, -0.0304272, 0.0370815, -0.0419104, -0.0501177, -0.0371135, -0.0851828, 0.0891973, 0.0417201, 0.0431087, 0.0934566, -0.0113135, 0.0492826, 0.0389818, -0.0281838, -0.0327452, 0.0675827, -0.0611043, 0.0424189, -0.0598409, -0.0169336, -0.0228723, 0.0308658, 0.0062255, 0.0491619, -0.0223051, -0.0495051, -0.0770685, 0.0859999, -0.0933463, -0.0955975, -0.0299629, -0.0211037, -0.0562003, -0.0860592, 0.0940506, -0.0269737, 0.095748, 0.0818457, -0.0777243, -0.0240966, -0.049725, -0.0353621, -0.0722092, -0.0994112, -0.0118663, 0.0323939, 0.0960864, -0.0330054, 0.0904946, 0.100848, -0.0901227, 0.0532731, -0.0456912, -0.0771324, 0.0298875, 0.0692489, 0.0865664, 0.0199815, -0.0499041, -0.0776197, -0.0877051, 0.00300721, -0.0152973, -0.100313, 0.0267709, 0.086456, -0.0906152, 0.0422147, -0.0711001, 0.0428336, 0.0615365, -0.0963852, 0.0816298, -0.0207411, 0.012893, 0.0393547, 0.0233826, 0.0960628, -0.0125859, 0.0714428, -0.0847557, 0.0747065, -0.0281223, 0.0289187, 0.00379007, -0.0518421, 0.100899, 0.0322549, -0.0782408, 0.0104517, 0.0063265, 0.0636373, 0.098953, -0.0164374, -0.0261383, 0.021101, 0.0750114, 0.0275799, -0.0956961, -0.0018563, -0.100799, 0.0172919, -0.0902255, 0.0613525, -0.00544948, -0.0086816, -0.0284726, -0.0484756, 0.100736, -0.0540954, -0.000783682, 0.0782189, -0.0083041, 0.0965414, -0.045839, -0.0511467, 0.0816964, -0.00973513, 0.0178315, 0.0721352, 0.00257311, -0.0392237, 0.0163991, 0.0109619, 0.036339, -0.0980539, -0.050632, -0.0288225, 0.0669497, 0.00884644, 0.0370548, -0.021246, 0.0223243, 0.015285, 0.00458299, -0.0552657, -0.0903369, 0.0909579, 0.00466555, 0.0698572, -0.0865515, -0.0660453, -0.0150974, 0.026718, -0.0038339, -0.0571646, 0.038842, 0.0349631, -0.096467, -0.0869501, 0.0990155, -0.0305337, 0.00990604, -0.0176494, 0.0526206, -0.00449896, 0.0729236, 0.0553408, -0.0136833, -0.0289411, 0.0465658, 0.0424453, -0.0102178, 0.0404042, 0.0118128, -0.0430359, 0.0674558, -0.0925404, 0.0374764, 0.0835283, 0.0378408, -0.0843174, -0.0950264, -0.0189211, 0.0144838, 0.0273204, 0.0771865, 0.0584598, 0.0665346, 0.0936349, 0.0124568, -0.0450178, -0.00868826, -0.010677, 0.0249618, -0.0161061, 0.0335868, 0.0157711, 0.0052854, 0.00580784, -0.0404548, 0.00954985, -0.0947903, 0.0174624, 0.0849006, 0.0084886, 0.0185813, -0.0414619, 0.0551785, -0.00855327, -0.072325, -0.00079827, 0.0149713, -0.0516156, -0.0686821, 0.0453768, -0.0279216, 0.00421503, -0.0465468, -0.0703428, 0.0537833, 0.0573907, -0.0602745, -0.090086, -0.0302979, 0.0438852, -0.0174289, 0.00120286, 0.0763213, -0.0164091, -0.0152747, 0.0670539, -0.0429021, -0.0295708, 0.0713551, -0.0813505, 0.00419846, -0.0810233, -0.0308593, -0.0665085, 0.0746697, 0.00722812, 0.0354832, -0.00222261, -0.0968599, -0.0815826, 0.0280678, 0.0237774, 0.00208362, -0.0403223, 0.00238508, -0.0451616, -0.0412859, -0.0182916, -0.0931936, -0.0906504, -0.0573681, 0.0831089, 0.0776033, 0.0318871, 0.0707761, 0.0523997, 0.0400705, 0.0432142, 0.098496, 0.00801831, -0.00319535, -0.0676147, -0.0911452, 0.0622515, 0.0475204, 0.0605006, 0.0512227, -0.0487012, -0.07799, 0.0736785, -0.0980704, -0.0881925, 0.0585183, 0.014862, -0.0558803, -0.0626355, -0.0311056, 0.041168, -0.0768506, -0.0310474, 0.0689884, 0.09823, -0.0532192, 0.0398726, 0.0957164, -0.0833582, 0.0456459, 0.0272674, -0.03817, 0.0546245, 0.0205804, -0.0685225, 0.0635245, 0.0700557, -0.0240734, 0.0811765, 0.0590543, 0.060453, 0.0580467, 0.0978301, -0.100779, -0.011251, 0.0804915, 0.00336633, 0.00864602, 0.0544112, 0.0794379, -0.0415967, 0.021483, -0.0490557, 0.0589024, -0.0345042, -0.0944502, 0.0957746, 0.0891308, 0.0972117, -0.0696717, -0.0658727, 0.0698924, 0.0421547, 0.000667848, 0.029157, 0.0557251, 0.0995092, -0.00895386, -0.0990155, 0.0865714, 0.0480606, 0.0758736, 0.098435, -0.0575383, -0.092843, 0.0868167, -0.0493977, -0.0579258, -0.0588669, 0.0868904, -0.0739361, -0.0681348, -0.0935739, -0.0507165, -0.0440326, -0.0344037, 0.0693621, 0.0846989, -0.0491376, 0.0329536, -0.0419633, -0.0125588, -0.066519, 0.0841945, -0.0692573, 0.0283812, -0.0497154, -0.0216661, 0.014003, -0.0443256, 0.0851376, -0.0636075, 0.00502169, 0.0265132, -0.0747932, 0.0642508, 0.0189462, -0.0224964, 0.051652, 0.0886933, 0.0711537, -0.0601218, -0.0499437, -0.00550061, 0.013117, -0.0655714, -0.0120261, 0.0145968, 0.0319037, -0.0956136, 0.0340866, -0.0530867, -0.0507234, 0.076493, -0.09825, -0.0600378, 0.0813538, 0.000260212, -0.0425883, 0.0436238, 0.0186344, -0.0463744, 0.018381, 0.0900806, -0.0961433, -0.0165054, 0.0597492, 0.0284543, -0.0271859, 0.0423139, -0.0759307, -0.0263328, 0.0323091, 0.0841515, 0.00921482, 0.0692268, -0.0801266, 0.0518137, 0.0169441, -0.099669, -0.0511447, -0.0250601, -0.0546581, -0.0382429, -0.0533701, 0.0694265, -0.0561717, 0.0607075, 0.0548527, 0.0952339, 0.0863383, -0.0526866, 0.0936768, 0.0754243, -0.0841564, 0.00623439, 0.0230476, -0.0917178, 9.93684e-05, 0.0507673, -0.0539753, 0.0957856, 0.0100629, 0.0502777, 0.0680009, -0.015989, -0.0829652, 0.0531757, -0.0936605, -0.0180689, -0.061147, 0.0131501, -0.0934208, 0.0764361, -0.00772467, 0.0814865, -0.0820272, 0.0849841, 0.0093501, -0.000572339, -0.0802652, -0.0722753, -0.0729491, -0.0121581, 0.0904683, -0.0314638, -0.0945188, 0.0361489, -0.0157457, 0.0450875, -0.0732772, 0.0494739, -0.0330568, 0.0271529, -0.0986762, 0.0163653, 0.095408, 0.0286765, 0.0328822, -0.0738785, -0.00576773, 0.00780883, 0.0813277, 0.0697828, 0.0833177, -0.0131856, -0.0101141, -0.100215, -0.0250583, -0.0639714, -0.0614728, 0.0544027, 0.0447305, 0.0735222, -0.00689807, -0.0676083, 0.0753354, 0.0952332, -0.0811842, -0.0338804, -0.0929087, -0.0919529, 0.01186, 0.0239967, 0.0870343, 0.0834777, -0.015954, -0.028004, -0.0604116, -0.0865001, 0.0516122, 0.0759769, 0.0958516, -0.0177882, -0.0982876, 0.0799619, 0.0577329, 0.071274, -0.0732493, 0.0522508, 0.0446604, 0.0932719, 0.0766869, -0.0820039, 0.0936343, -0.00193046, 0.0108499, 0.0254498, -0.023737, 0.00764987, 0.0849949, 0.0376699, -0.0545568, 0.00834066, 0.0397376, 0.0845965, 0.00795721, 0.0134065, 0.0958552, -0.0145927, -0.0480816, -0.0268649, 0.0299383, -0.091926, 0.044845, 0.0499567, 0.0890283, 0.0063008, -0.0906859, -0.0326053, 0.0677759, 0.0197867, -0.0998557, 0.00783129, -0.0951068, -0.0871761, -0.0271276, 0.0891345, -0.0871309, -0.0444309, -0.0178691, 0.00459715, -0.022827, -0.0942022, 0.00743061, -0.027913, -0.0824314, -0.0657641, 0.0337532, -0.0906582, -0.0233996, 0.0687404, -0.0403988, 0.07942, 0.0967999, 0.10077, 0.00235945, -0.0871858, -0.0585173, 0.0323313, 0.0281152, -0.0281305, 0.055611, 0.033688, 0.0444514, 0.0849843, -0.00480433, 0.0553815, 0.0375008, -0.0279153, 0.00319781, 0.0541636, -0.078159, -0.0440967, 0.0515479, 0.0663785, 0.00953589, 0.0825713, 0.083993, 0.0170251, -0.053451, -0.0697031, -0.0209185, 0.0254367, -0.0368675, -0.00492539, 0.068986, -0.0934286, 0.028479, -0.0440168, 0.0405602, -0.0443553, -0.0960359, 0.0947136, 0.0202371, -0.0987105, 0.0304475, -0.0847433, 0.0575705, 0.0502841, 0.000227943, 0.0190367, -0.0693263, -0.0612573, -0.0862414, 0.0783806, -0.0429489, -0.059261, -0.000267141, 0.0109969, 0.0969581, 0.0903123, -0.019321, 0.0383782, -0.0737959, 0.0693528, -0.0572669, -0.0732583, -0.0596354, 0.091834, 0.100987, 0.069189, 0.0915154, 0.038688, -0.0912839, 0.0282284, 0.0388888, 0.0722455, -0.0669101, -0.0905396, 0.0777008, 0.0465126, 0.0393707, 0.000479534, 0.074406, -0.00541101, 0.0730455, -0.0231668, -0.0898939, 0.00487597, -0.0560998, -0.0753304, 0.00970318, 0.0548536, -0.0766158, 0.02864, -0.0983742, -0.0625092, 0.0918744, -0.0225975, -0.0779396, -0.0974069, 0.0573137, 0.00515555, 0.0227878, -0.0228548, 0.0522846, -0.0562107, 0.000320956, 0.0902486, -0.0947113, -0.0651901, -0.0323681, -0.0131399, 0.0318805, 0.01958, 0.0164808, -0.0785392, -0.058821, -0.0123729, 0.100898, 0.0242201, -0.0135824, -0.016455, -0.0635802, 0.010087, 0.0434424, -0.021193, -0.0236751, 0.0137205, 0.0535441, 0.0212039, 0.0656838, 0.0519452, 0.0536055, 0.0830782, -0.0356496, 0.03907, 0.0814682, 0.0373942, 0.0651444, 0.00480042, -0.0887009, 0.0574442, 0.0709584, -0.0873509, -0.00528327, -0.0270445, 0.0271686, 0.00727792, -0.00240491, -0.0388786, 0.0852293, 0.0856719, -0.0900547, 0.0712433, 0.0361258, 0.0777288, -0.034059, 0.0659555, 0.0452564, 0.0115693, -0.0544884, 0.0886346, 0.0695895, -0.077608, -0.00972753, -0.0654994, -0.00644396, 0.0471144, -0.0223981, 0.00218382, -0.0539886, 0.00908833, -0.0774621, 0.0863709, 0.010664, -0.0716447, -0.051331, -0.0131801, 0.0725938, -0.0289613, -0.0772536, 0.042235, 0.0512655, -0.0105276, -0.0913195, -0.016435, -0.000879645, 0.0545173, 0.0403354, -0.0709136, 0.0117012, -0.0290677, 0.00405553, -0.0729218, 0.0269179, -0.0151347, 0.097424, -0.0826669, -0.0284295, 0.0194529, -0.0394633, 0.0420491, 0.0633684, 0.0399164, 0.0838117, 0.00499932, 0.024783, -0.0313647, -0.0944258, 0.094987, -0.0700829, 0.0821487, 0.0103462, -0.0484865, 0.0139461, 0.0767754, -0.0887146, -0.0578504, -0.00570317, 0.00691096, -0.0130609, 0.0432983, -0.0593725, -0.0800534, -0.0568162, -0.0180107, -0.0823078, -0.0169353, -0.0359173, 0.0204653, 0.0176349, 0.0480407, -0.0556444, 0.097203, 0.0746459, 0.0705313, -0.0888087, -0.0580403, -0.0124184, -0.0967578, -0.0144028, 0.00742983, -0.0668126, 0.0222045, 0.0560946, -0.0320302, -0.100529, 0.068958, -0.0908187, 0.0161756, 0.0213604, -0.00490708, 0.0355714, -0.00829536, -0.0492126, 0.0990065, 0.0451965, 0.0939187, 0.0690433, 0.0031094, 0.00841093, 0.0255726, 0.0523726, 0.0126834, -0.0305066, 0.100764, 0.0594669, 0.0330255, 0.0190391, -0.017653, -0.0579982, 0.0503863, -0.00840674, 0.0435981, -0.0950697, -0.00134598, 0.0195551, 0.00880049, -0.0214036, 0.0915682, 0.0379701, -0.0981143, 0.0666875, -0.100289, -0.0905008, 0.100224, 0.0765736, -0.0437138, -0.0890568, 0.0490729, -0.0328434, -0.068946, -0.054037, -0.0106335, 0.0448555, 0.0197615, -0.0346102, 0.0821241, 0.0918556, 0.0318801, 0.0537419, -0.0428321, 0.0363731, -0.0843786, -0.0945381, -0.0260436, -0.00158836, 0.0633492, 0.0292065, -0.0826007, -0.0138592, -0.0106185, -0.0679856, -0.0646818, 0.0935844, -0.014027, 0.0881336, -0.0258248, -0.00810774, 0.0653848, 0.0785139, 0.0421914, -0.00666612, -0.0723897, 0.091797, 0.0976696, 0.029257, 0.0750483, 0.010069, -0.0442997, -0.0136508, -0.0738549, 0.0106535, -0.0579211, 0.0390093, -0.0982057, -0.0766465, -0.0240363, -0.0223423, 0.0837576, 0.0607768, -0.0101154, -0.0614197, 0.0655234, 0.0207861, 0.0152227, -0.0342293, 0.0898607, -0.0868879, 0.013495, 0.0724526, 0.0996857, 0.0633544, -0.003333, 0.00546353, -0.0711919, 0.0333608, -0.0729047, -0.0923354, -0.0998996, -0.0889874, 0.0771385, -9.73344e-05, -0.0110864, -0.0304442, 0.0493262, 0.02462, 0.0928916, -0.035115, -0.0767924, 0.0955115, -0.0469949, 0.0924208, 0.000692546, 0.0303462, -0.0136234, 0.0725852, 0.082599, 0.047653, 0.0736504, -0.0666352, -0.0656529, 0.0530141, 0.0181911, -0.0111897, -0.0180886, 0.0775578, 0.0110507, 0.0563543, -0.0514304, -0.0559415, 0.07261, 0.0428136, -0.0203084, -0.0103325, -0.00447669, 0.0677085, -0.0836125, 0.000187397, 0.0920644, -0.0150725, -0.00769376, -0.0738928, -0.0352302, -0.0744557, 0.0522079, 0.0799012, -0.0597107, 0.0222581, -0.00396173, 0.015059, 0.0539667, 0.0287911, 0.0727784, 0.0680034, 0.0242963, 0.0420835, 0.059156, -0.0993795, -0.00875109, 0.0204072, -0.00720279, -0.0501723, -0.0218504, 0.0849883, -0.080151, -0.0167155, 0.0266704, 0.0199301, 0.0392407, 0.053382, 0.0823119, 0.00847432, 0.0818371, 0.0632437, -0.04602, 0.0398328, 0.0372262, -0.0335529, 0.00830007, 0.023983, -0.0351603, -0.0445859, -0.0335741, -0.0565278, -0.0707863, 0.041801, -0.0665369, -0.0911873, -0.0960607, 0.0104183, -0.0366594, -0.0295924, 0.0441252, 0.0231886, -0.0413601, -0.00610939, 0.0382162, 0.0444018, -0.0849228, -0.0308922, 0.00229475, 0.0632035, -0.0419698, -0.0630263, 0.0898589, -0.0132015, 0.0662818, -0.0498412, 0.0346948, -0.0117411, -0.0395853, -0.0455903, 0.0669275, -0.077696, 0.0656782, -0.00936922, 0.0877305, 0.0921931, 0.0319169, -0.0241402, -0.0517144, -0.0232143, -0.084892, 0.0932436, 0.0296635, 0.0368055, 0.087138, -0.0159073, -0.0370395, -0.0985118, -0.0219003, -0.0678308, -0.022951, -0.047631, 0.0157917, 0.0298723, 0.0279396, -0.038444, 0.00829843, 0.0807123, -0.0995993, 0.0884194, -0.0898018, -0.0376369, 0.0511258, -0.0568416, 0.00240018, 0.0811513, 0.0360291, -0.0121491, -0.0406958, -0.0617609, -0.0289348, 0.0329289, -0.0089661, 0.00489315, 0.0425621, 0.0274526, 0.00112966, -0.0753265, 0.081093, 0.0605568, -0.0219681, -0.0702954, -0.0374291, -0.0615917, -0.0828324, 0.091347, 0.0710702, -0.0186896, 0.0214635, 0.08182, -0.0373164, 0.0548065, 0.0475698, 0.0752417, 0.0827114, 0.100333, -0.0253694, -0.054717, 0.0347663, 0.00698102, 0.0580794, -0.037156, -0.0659555, -0.0325678, -0.05119, 0.078937, -0.0946854, -0.0256631, 0.0351192, -0.0829264, -0.0674425, 0.097309, 0.0621425, -0.0308837, -0.0605961, 0.0633779, -0.0309163, -0.00101052, -0.0219551, -0.0992274, -0.0842101, -0.0168746, 0.0635348, -0.0346141, -0.0156503, 0.0749524, 0.029886, 0.0916485, -0.0513057, 0.0467273, -0.0147454, -0.000325918, 0.100342, -0.051036, -0.0525826, 0.0902327, 0.0932469, -0.0603082, -0.0299004, 0.0183919, -0.0919545, 0.0470738, 0.0115268, 0.0522142, -0.033379, 0.0417725, 0.0145185, -0.0348457, -0.0529534, 0.0691332, -0.0801788, 0.0614514, -0.048894, -0.0242614, -0.000495635, -0.0191513, 0.0688344, 0.0282969, 0.0104614, -0.0799115, -0.0154246, -0.0465733, -0.0987695, 0.0997669, 0.0985821, 0.0101588, -0.00387739, 0.00768775, -0.0107215, 0.0238291, -0.0175444, -0.0472125, 0.0795194, -0.0212032, 0.0189523, -0.0722972, 0.0299723, -0.0578522, 0.0893998, 0.0992992, -0.0110721, 0.0220989, 0.0861254, -0.0891751, 0.0503027, 0.0453494, -0.0521977, -0.000579558, 0.0734517, -0.045176, 0.029017, -0.0969171, -0.0093842, 0.0269635, -0.0651857, -0.0338969, -0.0433008, 0.0509384, 0.0822861, 0.0420032, 0.0687846, -0.0493035, 0.0729155, -0.0273592, -0.0303647, 0.062237, -0.0643757, -0.0443749, 0.0338408, 0.0647054, -0.00136064, -0.0306314, 0.0937096, -0.0540502, -0.0215644, 0.00186588, 0.0592798, 0.0164835, -0.100493, 0.0810697, -0.0687201, -0.0366904, 0.092058, -0.0484979, 0.0853316, 0.0985447, 0.0341889, 0.0971085, -0.0204104, -0.0669964, -0.0774725, -0.0641968, -0.0996857, 0.0521067, -0.0784376, -0.0500082, -0.00160193, 0.0284522, -0.0882322, 0.00486252, -0.0896916, -0.0236407, 0.0612802, 0.0100669, -0.0435375, -0.00374186, 0.0099081, -0.0204728, -0.0889052, 0.100486, -0.0338868, 0.0714204, -0.0265811, -0.049537, -0.0362604, -0.00615462, -0.0279135, 0.0602412, 0.0453877, 0.00129062, -0.0657428, -0.0582545, 0.0984268, 0.0569885, 0.0710111, -0.0323829, -0.0933906, 0.051161, 0.0268669, -0.0903959, 0.00870299, -0.0832706, 0.0404672, 0.0443458, -0.00329081, 0.0347116, -0.0289096, 0.0224362, -0.0171423, 0.0883363, -0.0293621, 0.0209201, 0.0403392, 0.0307045, -0.0536271, -0.0880079, -0.0416847, -0.0160042, 0.0651487, 0.0367387, -0.0419428, -0.0538719, 0.0725236, -0.100737, -0.0100452, 0.0622684, 0.0166427, 0.0693838, -0.0508353, -0.0300499, 0.00940956, -0.0519051, -0.0689515, 0.0828713, 0.0432476, -0.0103252, 0.0116982, -0.0831977, -0.0501525, 0.0584295, -0.0977092, 0.0164455, 0.0290269, 0.0939047, 0.0737051, 0.0822746, 0.0479618, -0.0787788, 0.0873006, -0.0767558, 0.0721723, -0.0448428, 0.0368503, -0.0237022, 0.0997378, 0.077536, -0.000236616, -0.0986853, 0.068075, 0.0346121, -0.0264545, -0.00776523, -0.0021698, -0.0423341, 0.00426321, 0.0740061, 0.0176998, 0.0508232, -0.0971966, 0.00169305, 0.0751419, -0.0369101, 0.0151786, -0.0984755, -0.0994449, 0.0162525, -0.0153271, 0.0162787, -0.0485733, 0.0995571, 0.0555489, -0.0390779, -0.034042, -0.065029, -0.0925511, -0.0587158, 0.0548647, -0.0840416, 0.0259846, 0.0368425, -0.0853304, 0.0175211, 0.0429636, -0.0241453, -0.0894246, -0.0877182, -0.0648128, 0.00908735, -0.0286505, 0.0740246, -0.00465918, -0.0257489, 0.0937333, 0.0150929, -0.00139751, -0.0617142, -0.0799604, -0.0884432, -0.0995116, 0.0288139, 0.0601592, -0.0155842, -0.0107092, -0.0518818, 0.00298627, -0.0762066, 0.0632, 0.0501554, -0.0508811, -0.0278467, -0.0313535, -0.0124041, -0.0447541, -0.0252327, -0.0575236, -0.0310704, -0.0127991, 0.00657867, 0.0989985, -0.0588564, -0.0940798, 0.0628657, 0.0835999, 0.0849844, -0.0195475, -0.0366027, 0.0444261, -0.0961709, 0.0400015, 0.0858224, -0.0969155, 0.0225485, 0.0743432, -0.0224508, -0.0660865, -0.0966132, -0.0958956, 0.043618, -0.0183186, 0.0211103, 0.0606527, 0.0165997, 0.0976837, -0.0627519, -0.0919624, 0.0410999, 0.0580745, 0.0334219, -0.0622224, -0.0755839, 0.00471606, -0.0591466, -0.0303117, -0.0215778, 0.00987397, 0.058709, 0.0866383, -0.0672842, -0.0355415, 0.0393675, 0.0214014, 0.0621556, 0.0382491, -0.0413776, 0.037117, 0.0351718, 0.0801491, -0.0529854, 0.0137735, 0.0421823, -0.0663539, 0.0807921, 0.0546918, 0.0207082, 0.00711515, 0.026808, 0.0314866, 0.00725959, -0.0203158, 0.0965586, -0.0691818, -0.0204936, 0.0570516, -0.0956594, 0.0230803, -0.0916638, -0.0252077, 0.0122895, 0.0100203, -0.0595529, 0.0281833, -0.0218087, 0.00439204, 0.0298003, 0.0703575, -0.0843413, 0.00897529, 0.0286335, 0.0490852, -0.0150739, 0.04543, -0.00433575, 0.0396963, -0.0121484, 0.0373477, -0.0384645, 0.00529593, 0.0635712, -0.0540362, -0.032851, -0.024444, -0.0290069, -0.0566272, -0.0696745, -0.0422001, 0.0968667, -0.049043, 0.000385366, 0.0566789, -0.0323478, 0.0460733, 0.0236642, -0.0666019, 0.000309825, 0.0611294, -0.0421707, -0.0135544, 0.0730348, 0.0588125, 0.0974597, -0.0610907, -0.0784079, -0.0941347, 0.071072, 0.030475, 0.0147938, -0.0104106, 0.0864658, 0.0761035, 0.0847661, 0.0167594, -0.0739069, 0.0236948, 0.0493942, -0.0234865, -0.0941114, -0.0222675, 0.0189531, 0.0610138, 0.0965215, -0.0105878, 0.0952323, 0.00012774, 0.0702218, 0.0812652, -0.0718528, -0.0282456, 0.0636952, 0.0216233, 0.0154273, -0.0873257, -0.0103971, 0.0473365, -0.0962773, 0.0330674, -0.0451481, 0.0381725, -0.014702, 0.0019797, -0.0501155, -0.0200248, 0.0720623, 0.0126181, -0.0524086, 0.0663673, 0.078107, 0.00843236, -0.0814944, -0.0331891, 0.0352501, 0.0891442, -0.0970842, 0.0984068, -0.0793038, -0.0908693, 0.0469519, -0.0329368, 0.00356359, 0.0875035, -0.0513347, 0.0142847, 0.0497421, 0.0943024, -0.0623616, -0.0167357, -0.035292, 0.0639358, -0.0156432, 0.0960203, -0.00239313, -0.0296878, 0.0562233, -0.00145571, -0.0917822, -0.0920822, -0.00153854, 0.0696205, -0.0568426, 0.0665009, 0.0271472, 0.026308, 0.0917129, -0.0509191, -0.0642556, 0.00286579, 0.076127, 0.0557634, 0.0842012, -0.0688518, -0.00824127, -0.0550088, 0.0455931, 0.0316767, 0.0574695, 0.0739133, -0.075685, -0.0219677, 0.0788695, -0.0319765, 0.0251724, 0.0238508, 0.0506005, 0.0163504, -0.00122473, 0.0440384, -0.0634999, 0.0719832, 0.091455, 0.024353, 0.0527759, -0.0642173, 0.0231175, 0.0208764, -0.0809117, -0.0751357, -0.0162494, -0.016283, -0.0662856, 0.00343978, -0.0376705, 0.0607992, -0.000466101, -0.0993063, 0.0283517, -0.017591, -0.10035, 0.00933054, -0.00645164, -0.0555922, -0.0342452, 0.0875264, 0.0948146, -0.0956874, -0.0127148, -0.0201829, -0.0722012, 0.0206006, 0.0467008, -0.0303199, 0.0897365, 0.0637627, 0.00434007, 0.024121, -0.0490297, -0.0910601, -0.0584236, 0.069164, 0.0604956, -0.0467366, 0.0490679, -0.041042, 0.0196477, 0.0780765, -0.000733115, -0.0101759, -0.0712581, 0.0902733, 0.0335194, -0.0748838, -0.0105295, 0.0125794, 0.00696254, -0.0817183, 0.00993408, -0.039054, -0.00757364, -0.0285474, 0.0643935, -0.0914318, 0.0903044, 0.0318503, -0.0112021, 0.099417, 0.092548, 0.018606, -0.0902047, 0.0445889, 0.0310097, 0.0150022, -0.0459229, -0.0262454, 0.0342617, 0.098285, 0.0969081, 0.0156086, 0.0114306, 0.0695318, 0.0192291, 0.0703885, -0.0544414, 0.063554, 0.0573281, -0.0507666, -0.100458, -0.0761437, 0.0992965, 0.0128706, -0.0240543, -0.0487282, 0.0908211, 0.0470533, 0.0367665, 0.0663567, -0.0613221, 0.0408532, 0.0206911, -0.0334042, 0.0924257, -0.0449136, -0.0565672, -0.0203787, -0.0210752, 0.0646962, 0.00959851, -0.0287687, 0.0329724, 0.0629393, 0.0274453, -0.0422487, 0.0783652, -0.0900551, 0.100792, 0.0574102, 0.00750452, 0.0844052, 0.029381, 0.0652093, -0.0895306, 0.051891, -0.0356988, 0.0911958, 0.0134892, -0.038035, -0.0822246, -0.0520984, -0.0199198, 0.0156755, -0.099872, -0.0617576, -0.0430019, 0.0289471, -0.00399781, 0.0271886, -0.0909314, 0.0278504, 0.0539052, -0.022425, 0.0185799, 0.0424051, -0.0583201, 0.0455477, 0.0176983, -0.0952195, 0.0975561, -0.0117481, -0.0696358, -0.0980307, 0.00470179, 0.0100588, -0.058007, 0.00701402, -0.0912034, -0.00359951, 0.0487115, 0.0829672, -0.0112081, -0.0485158, -0.0241703, 0.0409556, 0.0803536, -0.0484098, 0.0729198, 0.0162794, -0.0819143, 0.0461403, -0.0495314, -0.0618627, 0.0212817, 0.0119383, -0.030843, 0.047791, -1.87308e-05, -0.0483847, 0.018793, 0.0368491, 0.0966017, 0.033986, 0.0527453, -0.0580908, 0.0402018, 0.0650923, 0.00404356, -0.0546977, 0.0202744, -0.0926939, 0.0933362, -0.0402139, -0.0113934, 0.0311108, -0.0547388, -0.0373685, -0.0655619, -0.036219, -0.0520734, -0.036404, 0.00681133, 0.0886704, -0.0432744, 0.0567286, 0.0958773, -0.00146668, -0.0692749, 0.0116958, -0.076621, 0.0772388, -0.0160007, -0.0663676, 0.0949805, 0.0804198, 0.00228957, -0.0971038, -0.0615701, -0.0092717, 0.0978901, -0.0626473, 0.0208823, 0.0621417, -0.0676436, 0.0460689, -0.082513, -0.0792001, -0.0211393, 0.00675888, -0.0346188, 0.0776954, 0.00486238, -0.0197508, -0.0122498, 0.0939028, 0.0399839, 0.056429, 0.0605477, 0.0620153, 0.0632365, 0.0285957, -0.0557065, 0.0707245, -0.00403932, -0.0270762, -0.0725084, -0.0361022, 0.0142404, -0.0610564, 0.0825424, -0.0799586, 0.0229398, 0.0967348, 0.082228, 0.0255238, 0.0784646, 0.0199847, 0.0530207, 0.0621679, 0.0247933, -0.0340764, -0.0701154, 0.0873139, -0.0306463, 0.0821561, 0.0937288, 0.0844971, 0.0266123, -0.0193494, 0.0416201, -0.0522212, 0.054447, 0.0213155, -0.0253078, 0.0210383, 0.0634515, -0.0295354, 0.0347997, 0.00233076, 0.0428778, -0.0754131, 0.0374153, -0.0668411, 0.0253927, -0.0197901, 0.0118983, -0.039069, 0.0582853, 0.0790839, -0.0726876, -0.0448008, -0.0962373, 0.0748723, -0.0981688, 0.0689113, -0.0658364, 0.00910702, -0.081513, 0.0828167, 0.0464335, -0.0422822, 0.0466258, 0.0565804, -0.00896521, -0.0841647, 0.095126, -0.0424034, -0.0324395, -0.011679, 0.0862994, 0.0326743, 0.00409193, -0.0511612, 0.0606645, 0.0880149, -0.0083091, 0.0265117, 0.019719, 0.0433857, 0.0545537, 0.0112435, 0.0625118, -0.034051, 0.0703619, -0.0940401, -0.0262183, -0.0897923, -0.0352496, 0.0125456, -0.0546999, -0.0870226, -0.0493382, 0.0154355, 0.0545914, -0.0801135, -0.0532038, 0.0431799, 0.0875611, 0.0527725, -0.0377125, -0.0736814, -0.0732471, -0.0623355, 0.0709072, 0.00755888, -0.0481358, 0.0107208, -0.0886665, 0.0893555, -0.0649474, 0.0760135, 0.0367195, -0.0549339, 0.046756, -0.0610238, 0.0584735, 0.0678199, -0.0170483, -0.017855, -0.0858227, -0.021223, 0.0667689, 0.0527278, -0.00824767, -0.0204044, -0.0274722, -0.0693196, 0.0650471, -0.0258203, -0.0536003, 0.023012, -0.0169488, -0.0947824, -0.0146111, 0.0988704, -0.0850336, -0.0198972, -0.0917082, 0.0460733, -0.0227212, 0.0822095, -0.0730709, -0.0498632, -0.011863, -0.0408736, 0.0216679, 0.0180786, -0.00367901, -0.0260331, 0.0201814, -0.0413818, 0.0371711, 0.0523238, -0.0863047, 0.0459624, -0.0137686, 0.084258, -0.0145185, 0.0703124, -0.017647, 0.0359653, 0.0230851, 0.0767213, -0.0440461, 0.0180007, -0.0691045, -0.100562, -0.060985, -0.083121, -0.0837112, -0.0129543, -0.0157252, 0.0508909, -0.0635763, -0.06057, 0.0241905, 0.0869977, 0.0251945, -0.0119689, 0.0462519, 0.0445585, 0.0510562, 0.0971966, -0.0239227, -0.0382889, 0.0903864, 0.0156666, 0.0457893, -0.0179388, -0.00619198, 0.0170422, 0.027767, 0.0887679, 0.0171743, -0.0517621, -0.0959896, 0.0949813, 0.0218261, 0.0263868, 0.0282287, 0.0917928, -0.0561294, -0.0518585, -0.0396439, 0.0563015, -0.0224872, 0.00813075, 0.0405603, 0.0542082, 0.0184097, -0.0641327, -0.0915974, 0.0365453, 0.0479207, 0.00610697, 0.0942189, 0.0788552, -0.0401702, -0.0519685, 0.09999, 0.0563445, -0.0989185, 0.0764152, 0.0821356, 0.0388766, -0.0411956, 0.0637418, 0.0899343, -0.0760441, -0.0126831, -0.0041235, 0.00384843, 0.0663096, -0.0450544, 0.0526973, 0.0980804, -0.0155202, -0.0611374, -0.059505, 0.0849402, 0.0629194, -0.0657067, -0.0912765, -0.0233027, 0.0473754, 0.0115905, 0.0891719, -0.0977614, 0.0831042, -0.074242, -0.0591059, -0.0695709, 0.0330688, -0.07824, -0.0074814, 0.098112, -0.0650659, 0.0465411, -0.0528518, 0.046689, 0.0460208, -0.0554809, -0.0262432, -0.0747885, 0.0506077, -0.0477401, -0.0279104, -0.081024, -0.0124556, -0.0315691, 0.0727108, -0.0520321, 0.0279993, 0.0810905, 0.0457776, 0.0270114, -0.00443732, -0.0247764, -0.090441, -0.0431972, 0.0357166, 0.0664222, -0.0309071, 0.000662945, 0.082306, 0.0285928, 0.054996, -0.00132676, 0.0585009, 0.0251118, -0.0809406, 0.040994, -0.0304435, -0.0891856, -0.0110274, -0.00717124, -0.0260985, 0.0926032, 0.0643876, -0.0291961, 0.0345013, -0.00483304, -0.0786627, -0.0102852, 0.0894483, 0.0885195, -0.0106431, 0.0113723, 0.045356, -0.0253282, -0.0276644, 0.0276216, -0.0701965, 0.0982922, -0.044195, -0.0627677, -0.034241, 0.0822834, 0.0876476, 0.0942166, -0.00191659, -0.073989, 0.0595257, 0.0765847, 0.0646167, -0.043869, -0.094497, -0.0660142, 0.0945391, -0.0912998, -0.078708, -0.0972268, -0.017132, 0.0693639, 0.0845863, 0.00400742, 0.0259707, 0.0946096, 0.0718159, -0.0489446, -0.0838491, 0.0881172, -0.017191, -0.0124729, 0.0786664, -0.0281438, 0.00220989, -0.00636744, -0.0482615, 0.0301725, 0.0277966, 0.0951857, 0.0578249, -0.0487838, -0.0190657, -0.0757296, -0.0945056, -0.0641179, 0.0358885, -0.0605818, -0.00416504, 0.0148295, -0.0580901, -0.0747069, 0.0530289, 0.0486301, 0.0320303, -0.0428114, -0.0379011, 0.052778, 0.0422532, -0.0286541, 0.0312753, -0.0538279, 0.0723531, 0.0491602, 0.0265958, 0.0806568, 0.00549028, -0.0275034, -0.0935078, 0.0436268, -0.0152185, 0.0522247, 0.0613677, -0.0522172, -0.0455767, 0.0127254, -0.0180487, -0.0915511, -0.0911279, -0.04604, -0.050924, 0.0299198, 0.043781, 0.0589098, -0.0926677, -0.0131545, -0.0443217, 0.010056, -0.0772643, 0.0978304, 0.0481295, 0.082912, 0.0305585, 0.0188921, 0.0938166, 0.0648395, 0.0138124, 0.0392832, 0.0564164, 0.0607617, -0.0375825, -0.0710311, -0.0432705, 0.0846515, 0.0739908, 0.0530969, 0.0698065, -0.0521863, -0.0564924, 0.0694771, -0.0520098, 0.0417217, -0.0805399, 0.0492835, 0.0582985, -0.0105578, 0.0966585, 0.0927293, 0.0188433, 0.0447646, 0.0138716, -0.0977163, 0.0591344, 0.0822461, 0.0539358, -0.0363749, 0.0786978, -0.0642436, 0.0113144, -0.0800417, 0.0198839, -0.010974, -0.0297165, 0.0683997, -0.0192276, 0.0638824, -0.0478261, 0.0780306, -0.0239919, -0.00434987, -0.0975069, 0.0486481, 0.00927598, -0.0704356, 0.00434697, -0.0547738, -0.0516705, -0.093607, -0.0839035, -0.0162828, -0.0804232, -0.00709459, 0.0274789, -0.0149565, -0.0689204, -0.0981839, 0.0791086, 0.0699373, -0.0304463, 0.0916959, -0.00400633, -0.0191437, -0.0296686, -0.0993058, 0.0566747, 0.0703583, -0.00229564, -0.0859485, 0.0553252, -0.00954266, 0.0816215, 0.02447, 0.00101931, -0.036105, 0.0659634, 0.100337, -0.00695438, 0.0429129, -0.0986507, 0.0650707, 0.0535908, -0.0785019, -0.0286513, 0.0905703, -0.0293289, -0.0930816, -0.094619, -0.0614087, 0.0375977, -0.0512056, -0.0919552, 0.0501106, 0.0120016, 0.00278339, -0.0909675, 0.0172976, -0.014019, 0.0840457, 0.0055709, -0.0417605, -0.0655268, 0.0833052, -0.0347254, -0.09032, 0.0431421, -0.0199226, 0.086742, 0.096468, 0.0631873, -0.0856375, 0.0193428, -0.0145112, -0.0661375, -0.0143314, -0.047197, -0.0901108, -0.0228335, 0.0209141, -0.0251281, 0.0866059, -0.0695452, -0.0154236, 0.0297721, 0.0637722, -0.0560258, -0.0814652, -0.0991802, -0.0332982, -0.0529938, -0.02367, -0.0360605, 0.0708013, -0.0921361, -0.030908, 0.0920023, 0.0172082, -0.0596313, -0.0337109, 0.0713715, 0.0999154, -0.0777066, -0.0423595, -0.099211, -0.0478061, 0.0594647, 0.0314793, -0.0915942, 0.0992069, 0.019622, 0.0371471, -0.0843272, -0.0195697, -0.0516924, -0.0310354, 0.0360569, 0.0980155, -0.0321915, 0.0126829, 0.0545789, 0.0183379, 0.0705983, 0.0827147, 0.0255568, 0.0196598, 0.0156556, -0.0222744, 0.0376363, -0.00864578, 0.000893995, 0.0666825, -0.0551625, -0.0461978, 0.0545651, -0.0863754, 0.0517831, 0.0607564, 0.0515013, -0.065411, -0.0727398, 0.0808269, 0.0988766, 0.0471595, -0.0899238, 0.0378462, 0.0995475, 0.0715515, -0.0959334, 0.0399478, 0.0204265, 0.0435554, -0.0616314, -0.0160182, 0.0184408, 0.0221423, 0.062316, -0.092191, -0.0410041, -0.0459557, -0.0721367, -0.00593012, 0.0652639, 0.0428658, -0.0852848, -0.0402873, -0.0133341, 0.0841728, 0.003696, 0.0413797, 0.0310017, 0.0469351, -0.0429821, 0.070052, 0.00488742, 0.019619, -0.0015674, -0.096932, -0.0573022, -0.0621656, -0.0878516, -0.0415404, 0.0818439, -0.0207288, 0.0361838, -0.0822988, -0.0583676, 0.0844594, -0.0447924, 0.0607071, -0.0070053, 0.0678151, 0.00141516, 0.0179636, -0.0691256, 0.0151649, -0.0334544, 0.0531417, -0.0619844, -0.00266603, -0.0236079, -0.0930023, 0.0491224, 0.0190853, 0.028433, -0.0663821, -0.0477492, -0.0941799, 0.0116038, -0.0312408, -0.0459982, -0.0421698, 0.0249002, 0.0241071, 0.035719, -0.0384978, 0.0912212, -0.0882659, -0.0686148, 0.037792, -0.0990634, 0.0413393, 0.0824249, 0.0356073, -0.039642, -0.0984359, -0.0518063, -0.0988192, 0.060137, 0.0742664, 0.0586841, -0.0899472, 0.0814025, 0.0198621, -0.0351716, -0.0658425, 0.068189, 0.0548935, 0.0897989, 0.0552531, -0.0338106, 0.0811711, -0.0728574, 0.00373764, -0.00312334, 0.0507632, 0.00491326, -0.0866263, -0.0371463, 0.0728776, -0.0396127, 0.0714801, -0.0760635, 0.0960871, -0.075883, -0.0985625, -0.0513097, -0.0651935, -0.00534512, 0.0157581, 0.0155031, -0.0762966, -0.068761, 0.00931446, -0.0864053, -0.0980292, -0.0763216, -0.0466276, 0.088724, -0.0229444, 0.0531695, 0.00185739, 0.0435349, 0.0861096, 0.0732869, 0.0811463, 0.0894254, 0.0414719, -0.0897524, -0.0544606, -0.0559852, 0.0242521, 0.0154692, 0.0768818, 0.0770841, 0.0841535, 0.0807571, -0.0434813, -0.0764498, -0.0867617, 0.014223, 0.00947805, -0.0718756, -0.0548196, -0.0641085, 0.0645309, -0.0340405, 0.0612588, 0.0455461, 0.0316564, -0.0216717, -0.0431848, 0.074462, 0.0624769, -0.0118395, 0.0509485, -0.0152258, -0.0761966, 0.00553615, -0.0114806, -0.0569268, 0.0573286, -0.0173537, -0.0992439, -0.0212058, 0.0191113, -0.0453904, -0.000506103, -0.084313, -0.0103255, -0.0767997, -0.0122264, 0.0790592, 0.0398247, 0.0795707, 0.0711421, -0.0198899, -0.0228479, 0.0905242, -0.0612872, -0.0578355, 0.025295, 0.0509749, 0.0775753, 0.0798665, -0.0274314, -0.0435968, 0.00521218, 0.0150782, -0.0947255, -0.0178962, -0.00360704, -0.0856631, 0.0617565, 0.068759, 0.0769304, -0.0601221, 0.0431304, 0.0701594, 0.00874248, -0.0210843, -0.0767246, -0.065333, 0.0116076, 0.0207307, 0.0225446, -0.0460377, -0.0366667, 0.0469991, 0.0915661, 0.0866539, -0.0719085, 0.045612, 0.0238889, -0.0305709, 0.0579742, 0.0122364, -0.0626701, 0.0246598, -0.0943543, 0.0319514, 0.0947249, 0.0867456, -0.0840728, -0.0594138, -0.0783214, 0.0858177, 0.0237635, -0.0607549, -0.019643, -0.00971635, -0.0575291, -0.0918311, -0.0853518, 0.0775929, 0.0291129, -0.0064686, 0.0968587, 0.0725914, 0.0367784, 0.00297628, 0.0815429, -0.00564796, -0.0302785, 0.0140371, -0.0389229, -0.086995, -0.017298, 0.0338271, 0.0731352, 0.00885563, 0.0514549, 0.00679489, 0.0608093, 0.0352384, -0.0555614, -0.0246606, -0.0708399, -0.0219344, 0.039573, 0.0810852, -0.00301814, -0.0397757, 0.0308684, -0.0512292, -0.0862136, 0.070314, -0.0730225, -0.0161498, -0.0677112, 0.0548314, 0.0741919, 0.0786472, 0.0451336, 0.0397004, -0.088144, -0.0179473, 0.0179202, 0.0262927, -0.0993252, -0.0684418, -0.0558246, -0.0831142, -0.00818066, -0.091899, 0.0254809, 0.0259875, 0.0191407, 0.00670686, 0.079048, -0.00811049, -0.0632548, 0.000939153, 0.0644123, 0.0174263, 0.0408505, 0.0317034, 0.0511751, -0.079266, -0.0592058, 0.0333589, -0.0390161, 0.0908435, 0.084702, -0.0983879, 0.0795027, 0.0350849, 0.024936, 0.0731027, -0.00446824, 0.0153003, 0.0885896, 0.0352114, -0.0436273, 0.0238628, -0.00235627, 0.0208816, -0.00188948, -0.0321178, -0.0657047, 0.0105234, 0.0868873, 0.0345608, 0.0589524, 0.0856025, 0.00760401, -0.0277851, 0.0185265, -0.0378792, 0.0461038, 0.00627874, 0.0471172, -0.0330969, -0.0368303, 0.0656664, 0.0849863, -0.0138684, 0.0905076, -0.0974763, 0.0536446, 0.019289, -0.041194, 0.0495435, -0.0520468, -0.096649, 0.0777188, 0.0604213, -0.00282785, -0.0300816, -0.0422929, 0.0369718, 0.0926748, 0.0730169, -0.0818982, -0.0330739, 0.0481681, -0.0976965, -0.0974287, -0.0316652, 0.0927309, -0.0145784, -0.00347334, -0.0264569, -0.080988, -0.0645428, 0.0558937, 0.0823093, 0.0984324, 0.00115221, -0.085873, -0.0549406, 0.0369951, 0.00936321, -0.0237201, 0.0489206, -0.0762891, 0.0725044, 0.0808375, 0.00665024, -0.0258236, -0.0426843, 0.0636029, 0.0610456, -0.0970558, 0.0874997, -0.0889111, -0.018925, 0.0431601, 0.0763512, -0.0705149, 0.0738826, 0.0118464, 0.0768968, 0.0759179, -0.0848846, -0.0356677, 0.0451825, -0.0185182, -0.0438082, 0.0951825, 0.014304, 0.0476987, 0.0540041, -0.018287, 0.0869835, -0.054032, 0.0440494, -0.0621544, -0.0360852, 0.100367, 0.0620663, 0.0934701, -0.0876088, 0.0824109, 0.0201399, 0.06578, -0.0136762, 0.0116034, -0.058645, 0.093242, 0.0785698, 0.0149954, 0.0936999, 0.00512069, -0.0211204, 0.0762186, -0.0906653, 0.0258407, -0.0198422, -0.00155195, 0.0751424, -0.0890291, -0.0130913, -0.0526121, -0.0133346, 0.0611405, 0.0103476, 0.0457155, 0.0198103, 0.000130452, -0.067615, 0.0601038, -0.0792326, -0.0366401, -0.0815144, 0.0199266, -0.0533595, -0.0293772, 0.0486512, 0.0720567, 0.0827051, -0.0098602, -0.0269605, 0.0778906, 0.0289867, -0.023229, -0.0683235, -0.0979227, -0.0741223, -0.0596958, -0.0363404, 0.0806055, 0.0236638, 0.0320245, 0.0101038, 0.0572235, -0.0190222, -0.00396108, 0.0748046, 0.00324965, -0.0149749, -0.016364, -0.0816209, -0.0250377, -0.0807071, 0.100818, 0.051967, 0.0786325, 0.0479124, 0.0251902, 0.0162086, 0.0269775, 0.0463426, -0.0201432, -0.0174161, -0.086215, -0.0635638, 0.0343745, -0.0244164, -0.0252502, -0.0468046, -0.0331626, 0.00889024, 0.0795113, -0.00659434, 0.0657402, 0.0316041, -0.0645694, -0.0525452, 0.079745, 0.00362325, -0.0584225, 0.0656371, -0.0296936, -0.0275786, -0.0864823, -0.0204457, -0.0284877, 0.0834604, -0.0139325, 0.0277515, -0.000792272, -0.0156748, 0.0710316, 0.0217311, -0.0833886, 0.0974549, -0.0088631, 0.0768295, -0.0801256, -0.0846047, -0.0212093, 0.0359575, 0.00342768, 0.00781059, -0.0307009, -0.00454479, 0.0998371, 0.0958072, -0.0208549, -0.0599846, 0.0459312, -0.0381743, -0.0248094, 0.07402, 0.0957464, 0.0232989, 0.0658838, 0.10076, 0.0792599, -0.0670063, -0.0437369, -0.0801732, -0.056894, 0.0499576, -0.0321627, 0.0944873, -0.0437786, -0.0279961, -0.0702629, -0.0232628, 0.0923792, 0.095797, 0.0275922, 0.0664311, -0.0559614, 0.0356805, -0.014077, -0.0406894, 0.0537727, -0.0851496, 0.00944509, -0.0398235, 0.0355504, 0.0742908, -0.00916132, 0.0137742, -0.0010369, 0.00692633, 0.00868276, 0.0729512, -0.0183052, -0.0254854, 0.0586437, -0.0320565, 0.00422146, 0.0574225, -0.0978886, 0.0299306, 0.0163764, -0.0157337, 0.0671773, -0.0400125, -0.0643147, 0.0274281, 0.0381587, -0.0851519, 0.0911148, -0.0439824, 0.0432773, 0.00116841, -0.00687051, 0.0728218, -0.0541758, -0.0849222, -0.0938905, -0.0259125, -0.0722934, 0.0570593, -0.0229686, -0.0710273, -0.0391903, 0.0367519, -0.0532052, 0.0696369, 0.086657, 0.00471999, 0.0968175, -0.00298519, -0.0834291, 0.035929, -0.0646075, 0.0526416, -0.0216252, -0.0899643, 0.0287356, -0.0849762, -0.0763418, -0.0758951, -0.0778795, -0.00243086, -0.039976, -0.0341478, 0.0817092, 0.0896571, 0.0079018, -0.0969655, 0.00516378, -0.0291569, 0.0772043, -0.0216969, -0.0610319, -0.0394497, 0.024607, 0.0650617, -0.0594919, -0.0795791, -0.0213763, 0.100822, -0.00107336, -0.0291818, 0.0718757, 0.0352924, -0.0924612, -0.0251893, 0.0651718, -0.0631344, -0.0412089, 0.0853743, 0.0322994, -0.0932686, -0.0609835, 0.040612, -0.0177363, -0.0315827, 0.0974587, -0.0845909, -0.013145, -0.0469187, 0.0132222, 0.0175636, -0.0933934, 0.0568095, 0.0667595, -0.0195541, 0.0207556, 0.0666463, 0.0830999, -0.0495069, 0.0873758, -0.0606305, -0.0841273, 0.0850578, 0.0369422, -0.028133, 0.0413536, 0.0394468, 0.0850658, -0.0845671, -0.038764, -0.00309824, -0.092426, -0.00397306, 0.0547586, 0.0702222, -0.00926935, -0.0289585, 0.000510231, -0.0498098, -0.0127338, 0.00246719, 0.0557999, -0.00072813, 0.00183196, 0.0188125, 0.0765451, 0.047842, 0.0106548, 0.0341854, 0.0493326, -0.00319692, -0.0511641, 0.000501454, 0.0819686, 0.00285812, -0.00545117, 0.100297, 0.00493606, -0.0268601, 0.0139319, -0.0600513, 0.0755206, 0.0288465, -0.0930895, 0.00192683, 0.0224592, -0.0276133, 0.0361211, -0.0735988, 0.0415612, -0.0836289, -0.0792144, -0.0439111, 0.0473474, -0.0257264, 0.0904952, 0.0534934, -0.041587, -0.0407526, -0.0530162, 0.0677053, 0.0236561, 0.0568437, 0.0790972, -0.00837681, 0.0583341, -0.0574094, -0.0144407, -0.0211547, 0.0195352, 0.0649732, -0.034189, 0.0336048, 0.047713, 0.0722038, 0.0394249, 0.0310785, 0.039753, -0.00969987, -0.0754043, -0.0273487, -0.0721613, -0.0478904, -0.0889841, 0.0628055, -0.063169, -0.0075011, -0.0633979, -0.0512829, -0.011035, 0.0791481, 0.0471035, 0.0187552, 0.0936438, -0.0189982, 0.043289, -0.0584567, 0.0371177, -0.0775539, 0.0632622, 0.034938, -0.061862, 0.0258915, 0.0223796, 0.07116, 0.0772816, -0.0205827, -0.080529, 0.0633041, 0.0502913, -0.0153002, -0.0455037, 0.0958012, 0.0876683, 0.0568169, -0.0135704, 0.0710595, 0.0287104, 0.0140148, 0.0601783, 0.00593621, 0.0217031, -0.00155269, 0.0981729, -0.0116701, 0.092514, -0.0396981, -0.0855673, -0.0427372, -0.01989, -0.0563091, -0.0289441, -0.041688, -0.074021, 0.0949262, 0.0935364, 0.0971352, 0.0925906, 0.0768938, -0.00274476, -0.0605467, -0.00862453, -0.0648996, 0.0109359, 0.0180701, 0.047568, -0.0147512, -0.0022032, -0.0792812, 0.0120675, -0.0271035, -0.076159, 0.0850728, -0.0970134, 0.0535414, 0.0389355, 0.0272804, -0.0651953, -0.0935193, -0.00178041, -0.0201189, -0.0875419, -0.0633972, 0.0364404, 0.00447018, -0.0273857, -0.0182647, 0.0778379, 0.00164372, -0.040705, 0.0618198, 0.0281949, 0.0757887, 0.0291702, 0.0714622, 0.00507373, -0.00594237, 0.0183748, 0.0325692, 0.0430102, -0.00642814, -0.0508386, -0.0825008, 0.0190464, 0.0116482, 0.00185645, 0.00347925, -0.0954803, 0.0937922, -0.0159767, -0.0981304, 0.0509117, -0.0656326, 0.0356288, 0.0619714, -0.072711, -0.0281838, -0.0676192, -0.0253853, -0.0354298, 0.0433748, -0.00046327, 0.066813, -0.0709575, -0.00988518, 0.0316548, 0.0964485, -0.0973908, 0.0271974, -0.0626315, 0.0180218, 0.0269208, -0.0596873, -2.71425e-05, -0.0151295, 0.0316805, -0.0551266, 0.100587, -0.0196425, -0.0679903, 0.0540887, -0.0149534, -0.0137202, -0.0213894, 0.0654816, 0.0955312, 0.0526584, 0.0289666, 0.0790261, -0.0484534, -0.0728537, 0.0738921, 0.0702575, 0.0495301, -0.0692799, 0.0256137, -0.0348454, -0.0616487, -0.0510071, -0.0111723, 0.0829656, 0.0501648, -0.100238, -0.0196631, 0.020508, 0.0514023, 0.0245773, -0.09211, -0.0991487, 0.095367, 0.0208766, -0.0212629, -0.0839873, -0.0382982, -0.0704694, 0.044162, 0.00926553, 0.100981, 0.0978288, 0.0519429, 0.0428635, 0.0561219, -0.0912296, 0.0998775, -0.045289, 0.0255321, -0.0514722, 0.0715495, -0.0058352, -0.093556, -0.0863912, -0.100788, 0.0898708, 0.0429903, 0.0272919, -0.0856044, -0.0185106, 0.0574155, -0.0850559, 0.0537601, 0.0141149, -0.0381319, -0.0320387, -0.0891469, -0.030736, 0.0843492, 0.0635145, 0.0303375, 0.0602168, 0.0599326, 0.0366229, 0.0575167, 0.0616655, -0.0546852, 0.0507518, 0.0749241, 0.027308, 0.0323933, 0.0788536, -0.00564057, -0.053076, 0.0981288, 0.0133177, 0.000438757, 0.055763, 0.0673919, -0.00756473, 0.0695782, -0.0982447, 0.0637796, 0.0910153, 0.0609428, 0.0379201, 0.0110917, 0.0354771, 0.0449578, -0.029127, 0.040324, 0.0869854, -0.0246694, -0.0818702, 0.092819, -0.0820026, 0.0638154, -0.0550236, -0.0769939, 0.0945438, -0.0818207, 0.0932367, -0.00766988, 0.017042, -0.079622, 0.0254854, -0.097486, -0.0232304, -0.0873712, -0.0574359, 0.0208884, -0.099348, 0.0521507, -0.0539643, -0.0727187, -0.0910447, -0.0310662, -0.0527071, 0.00784931, -0.0709456, 0.00865848, -0.0749921, 0.0542866, -0.0482328, -0.00266974, -0.0418503, 0.00269943, -0.00902969, -0.0496258, 0.00938561, -0.0799907, -0.0654515, 0.061881, 0.0687733, 0.0570839, -0.0452439, -0.0602132, 0.00723726, 0.0467182, -0.0725358, 0.0847136, 0.021215, 0.00539982, 0.0201555, -0.0603807, 0.019693, 0.0217164, -0.0350215, -0.0792137, 0.0712768, -0.0630169, -0.0337708, -0.0622097, -0.077783, -0.00661471, 0.0403644, 0.0438849, -0.0901529, 0.0125258, 0.0101282, 0.0769411, 0.0969595, -0.0307563, 0.0983534, 0.0895198, 0.085739, 0.0275045, -0.0410597, -0.0241135, 0.0164441, -0.0199559, -0.0448993, 0.0317331, -0.0763712, 0.00498322, 0.0455097, 0.0301183, 0.0657303, -0.0756526, -0.000671029, -0.0512041, -0.00596469, -0.0245718, 0.03243, 0.0641901, 0.0257046, 0.0713959, 0.0232462, 0.0115885, 0.0725883, 0.0752384, 0.0808915, 0.0661078, 0.0418843, -0.0899894, 0.0653557, -0.0905435, 0.0918242, 0.0904828, 0.0822395, 0.0428698, -0.0528904, -0.0805146, 0.0956688, -0.0206081, 0.0751504, -0.0392177, 0.00444193, 0.0613254, 0.0554586, -0.100378, 0.001544, -0.0384314, -0.0885384, 0.075696, -0.0859443, 0.0127589, 0.00549062, -0.00931956, -0.0418892, 0.011403, -0.0607678, 0.0775547, -0.0999789, -0.0667246, 0.0915602, 0.0434677, 0.0380879, -0.0004922, -0.0211709, 0.0882431, -0.0839812, -0.0528045, -0.0791703, -0.0180201, -0.0117514, 0.0835906, -0.00321999, -0.0315578, -0.045829, 0.00823623, -0.00857162, -0.0616363, -0.0500084, 0.0654406, -0.0535704, 0.0582479, -0.00298869, -0.0271577, -0.0417446, -0.100934, -0.0861721, -0.0419086, 0.0787649, 0.00252003, 0.0880715, 0.0477527, 0.00792108, -0.0132035, -0.0031032, -0.0822634, 0.073384, 0.0508409, 0.051862, 0.0835882, -0.0360978, -0.0886971, 0.0718847, 0.0483661, -0.0201224, 0.0769197, -0.0192472, -0.0409551, -0.0577313, -0.089894, -0.0394691, 0.00173601, 0.0211999, -0.046409, 0.0512393, 0.0428551, 0.0360318, -0.0135561, -0.0799608, -0.0957258, -0.0278946, -0.0928612, -0.0685642, 0.0739015, 0.0703709, -0.0311122, 0.0164386, -0.0743774, -0.0685812, -0.00814784, 0.022961, -0.090023, 0.0142256, 0.0827755, 0.0485949, 0.00741759, -0.0519256, 0.0934628, 0.0694481, 0.00536163, 0.0893484, 0.0339602, -0.0898097, -0.0412168, 0.0330244, 0.0861846, 0.0375474, -0.0552825, 0.0531148, 0.00711048, -0.0359068, 0.0612594, -0.018328, 0.0882265, 0.0225554, -0.0961821, -0.0699899, 0.0178548, -0.00342668, -0.0442814, 0.0542549, 0.00386466, -0.0269454, -0.0927687, -0.0341663, -0.00937545, -0.0237319, 0.0955117, 0.0216867, 0.0689444, 0.0723687, 0.0712407, -0.0688832, 0.0813617, -0.0190355, -0.0425369, 0.0500119, -0.00215948, 0.0958275, 0.10007, -0.00296836, -0.0912634, 0.0283824, -0.0969279, 0.0393506, -0.0602, 0.0401107, -0.0768796, 0.0927047, 0.0297375, 0.0605123, -0.0881469, -0.0565969, -0.0355141, -0.0134056, 0.0118134, 0.0256608, -0.0763571, -0.0930879, 0.0543769, -0.035817, 0.0452492, 0.080806, -0.0338154, 0.0568094, 0.00911631, 0.0028047, -0.0604395, 0.00588999, 0.0699613, -0.0708703, -0.0561976, -0.0329866, -0.0656069, -0.0487239, 0.0718895, -0.00793236, 0.0487532, -0.0811313, -0.100107, 0.0332009, -0.0571795, 0.0137725, 0.0383825, -0.0257991, 0.000924073, -0.0198651, 0.0264395, 0.0959427, -0.0614027, -0.0718906, 0.0802519, -0.0860045, 0.0996848, -0.0240162, 0.042704, -0.0286927, 0.0129254, -0.0243187, -0.0661209, -0.0558882, -0.0961234, 0.0714656, 0.0990967, 0.0147304, -0.0259461, 0.0258641, 0.0475327, -0.0145791, 0.0884733, -0.0256837, 0.0780783, 0.0257187, 0.096057, -0.00754879, 0.0977902, 0.0204294, -0.0202065, 0.0558604, 0.070464, 0.0643582, 0.00772998, -0.0841517, 0.0840356, 0.0307707, -0.0423974, 0.0190004, -0.0261289, -0.021217, 0.0776372, -0.0739033, 0.0359105, -0.0561561, 0.0288378, -0.0523063, 0.0384619, -0.0787354, 0.0589236, 0.0246359, 0.0832106, -0.0758905, -0.085835, -0.00353068, 0.00478333, 0.0219989, 0.0377414, 0.0857005, -0.00490379, -0.0187659, -0.0872539, -0.0305222, 0.0828982, 0.04022, 0.078274, 0.0281033, 0.0810152, -0.0129296, 0.0362622, -0.00905839, -0.0578539, 0.0961636, 0.0528302, -0.05332, 0.0531881, -0.0967609, -0.0789828, -0.0858067, 0.0631464, 0.0804211, 0.0679522, -0.0615996, -0.0115117, 0.0311036, 0.00894964, 0.0486894, 0.0316972, 0.0659743, -0.0675257, 0.0355133, 0.0706155, 0.0547796, 0.0721341, -0.0688912, -0.0465739, 0.0808546, 0.0177432, 0.00324613, 0.0295739, -0.0755864, -0.0451255, 0.0567639, 0.0885271, -0.0622038, 0.030538, 0.029722, 0.0464694, -0.0729551, -0.0937096, 0.026252, -0.0686232, 0.0329084, -0.0959937, -0.0536566, 0.00328414, -0.0832863, 0.0915322, 0.0527471, -0.0776426, -0.0908937, 0.0795142, -0.0982552, -0.0729472, 0.0895647, -0.0737144, -0.0373132, -0.0354556, 0.0300085, -0.0406358, 0.0807313, 0.0804288, 0.04461, -0.0487207, -0.0304537, 0.0820623, 0.0850138, -0.0687508, 0.0783315, 0.0776588, 0.0238883, 0.0298072, 0.0049397, -0.0930474, 0.0405979, 0.0297281, 0.0158014, 0.0446674, 0.0369959, 0.0624875, 0.0996542, -0.0609601, 0.0131349, -0.0330331, -0.0338268, 0.0121639, -0.0542987, 0.0346024, -0.0788828, 0.068661, -0.0443036, 0.0663077, -0.0457327, -0.00501817, -0.0644571, -0.0800797, 0.0528976, -0.0939109, 0.0734167, -0.0455367, 0.0117219, -0.0946246, -0.0794154, -0.0495475, 0.0316833, -0.0550808, 0.0227872, 0.0979328, -0.0973324, -0.020559, -0.091208, -0.0669434, -0.0597327, -0.0744229, -0.00602943, -0.0851232, 0.0110949, 0.0990321, -0.0724334, 0.0993544, -0.0249383, -0.0147555, 0.0896492, -0.0354377, -0.0618743, 0.0608512, -0.0921824, 0.065747, -0.0395772, 0.085696, -0.0123814, -0.0205943, 0.0737239, 0.0364099, -0.0106681, -0.0129197, -0.0213661, 0.0937689, 0.0638934, 0.0222263, 0.098567, -0.00724462, -0.00899926, 0.0246794, 0.0611301, -0.0415465, -0.0789077, 0.0225863, -0.0307489, 0.0627831, -0.0964862, -0.067843, -0.0407704, -0.0533387, -0.0346901, 0.0925733, -0.0678807, -0.0678413, 0.0942831, 0.0916975, 0.089413, 0.0922248, 0.026623, 0.0707352, -0.0123998, -0.0104272, -0.093462, 0.0284618, 0.019118, -0.0639765, -0.0410987, -0.0779056, 0.0863419, -0.0751728, -0.0341088, -0.000264697, 0.0576662, -0.090024, 0.0480821, -0.0712866, -0.00300436, -0.0631202, -0.0851504, -0.0731342, -0.0843341, 0.0172391, -0.0725768, 0.0139743, 0.0959719, 0.0159712, 0.0338304, 0.0563856, -0.0479428, -0.022535, -0.0686336, -0.00064227, -0.0926716, -0.0116093, -0.0902708, -0.0941221, -0.0349191, 0.0957721, -0.066032, 0.0693422, -0.0948093, -0.0996544, 0.0499952, 0.0442274, -0.0347571, 0.0421485, -0.100572, -8.8349e-05, -0.090294, -0.0352239, -0.00876819, -0.0436801, 0.00376889, -0.0587529, -0.0735779, -0.0668757, -0.026687, -0.0300984, 0.0315174, 0.0166637, 0.0848977, -0.0450448, 0.0468607, 0.0744527, -0.0439478, 0.0302574, 0.0433065, -0.0943249, 0.0465912, 0.0671119, -0.0500199, -0.0601097, -0.0774412, -0.0723331, -0.0597019, -0.0241233, 0.0131339, -0.0804267, -0.0737227, 0.0571894, -0.00591119, -0.000709437, 0.0279506, -0.0513458, 0.0307479, 0.0433144, -0.00482146, 0.0311488, 0.0759405, -0.0479232, 0.0933518, -0.0961255, 0.0494987, 0.0741665, 0.0568293, 0.0617584, -0.0609437, -0.0133836, 0.0538509, 0.0112225, -0.0253088, 0.0804396, 0.0930343, -0.0288804, 0.0443544, 0.0589897, -0.100893, -0.0185177, -0.0245474, -0.0209346, -0.0824023, -0.00661275, -0.0255209, 0.0683805, 0.0787969, 0.0915985, -0.0245715, 0.0651816, -0.0565681, 0.0268069, -0.0421617, -0.0774663, -0.0782476, 0.087816, 0.0407979, -0.100474, -0.0700038, 0.0536503, 0.00666333, -0.047677, -0.0637775, 0.0890993, 0.0783194, 0.0904592, -0.0841705, 0.0799153, 0.0326872, 0.0121131, -0.00483637, 0.0787743, 0.00967784, 0.0980918, -0.0949951, 0.03857, 0.0745637, 0.0179861, -0.0172329, -0.0497358, -0.0800757, -0.0750782, -0.097762, 0.0817461, 0.0169082, 0.0862734, 0.0122522, -0.00719953, 0.0249497, 0.047781, 0.0908497, 0.0962863, -0.00702412, 0.0909854, 0.0778595, 0.00102181, 0.0636086, 0.0576907, 0.0263922, 0.00188091, 0.0151536, -0.0224427, -0.0508586, 0.0750764, -0.0270868, -0.0075995, 0.0624731, -0.0703671, 0.0487874, -0.0984473, -0.0447848, 0.0185411, 0.0224013, 0.0386521, -0.0684406, 0.0657668, -0.048872, 0.0786535, -0.00754981, 0.0585322, 0.0787196, 0.0488821, 0.0109067, 0.0526832, -0.0896414, 0.0944849, -0.0190962, 0.0766851, 0.0145219, -0.0546025, 0.00938023, 0.0914822, -0.0129678, 0.013018, 0.00781938, -0.0249848, 0.0070825, -0.0452548, -0.0936723, 0.0134689, -0.0133329, -0.0484697, -0.0209453, 0.0454687, -0.0113612, -0.0148576, -0.0697173, 0.0770686, -0.0982649, -0.0151273, -0.0314131, 0.0051908, -0.0482723, -0.00848743, 0.0425862, 0.0568216, 0.0559973, -0.0719238, -0.0362657, -0.0861179, 0.0584373, -0.0219511, -0.0870338, -0.0960238, 0.0848703, -0.0527972, 0.0451531, 0.0412463, 0.0491467, 0.0783806, -0.0773448, 0.0118448, -0.000997148, -0.0712246, -0.0142528, -0.0346525, 0.0360961, -0.0424229, -0.072347, 0.0800463, -0.0159293, 0.0197744, -0.00296679, 0.00317211, -0.0802146, 0.0269737, -0.0760726, 0.086088, -0.0446849, 0.0532126, 0.0720118, 0.0893255, 0.0636917, -0.100884, 0.0675205, -0.0122999, -0.0159762, 0.0021351, -0.0481019, -0.0421707, -0.0341729, -0.000412047, 0.070794, 0.0648894, 0.0697799, 0.00226016, 0.0265014, 0.0835415, -0.0874219, -0.021452, -0.0941361, -0.100675, 0.0888638, -0.0269572, -0.0331274, -0.0630671, 0.0137365, 0.086494, 0.00897541, -0.0903713, 0.0952926, -0.0829323, 0.0651783, 0.0280381, 0.0856912, -0.0245397, -0.0313243, 0.0423326, 0.0403984, -0.0167768, -0.0941594, -0.0964562, 0.0985149, -0.0813203, 0.0528274, 0.0926438, 0.09597, 0.0224535, 0.090785, 0.0861357, -0.0478507, -0.0635126, -0.0587898, -0.0460541, 0.0650557, -0.00601751, -0.0957959, -0.0680504, 0.0719342, -0.0481032, 0.0910675, -0.0949628, 0.0979107, 0.0113201, -0.0641728, -0.0775821, 0.0166466, -0.0924483, 0.0261047, -0.018267, -0.078995, 0.087885, -0.0689889, -0.0844458, 0.0196426, 0.0111295, 0.0293646, 0.00863684, 0.033133, 0.0515341, 0.0301458, -0.0246798, 0.0389666, 0.00705035, 0.0785061, -0.076316, -0.0837668, 0.00602005, -0.0674013, 0.0453233, 0.0454773, -0.0227797, 0.0599727, -0.0917797, -0.0448492, 0.0658596, 0.0916547, -0.0258227, 0.0118008, -0.00462074, 0.0998147, -0.068519, 0.0398787, 0.0871697, 0.0468399, -0.0898904, 0.0328751, 0.0826217, 0.0865944, -0.08223, 0.0351323, -0.00436606, 0.0905119, 0.0173349, -0.0137417, 0.0391326, 0.0561838, 0.00734732, 0.0770183, 0.0711385, 0.0186695, -0.0791059, 0.00756047, -0.00309074, -0.0650088, -0.0973976, 0.0950439, 0.094908, -0.0111583, -0.0645444, 0.000452317, 0.061638, -0.0124599, -0.0366093, -0.0318436, -0.0784588, 0.0799759, 0.0956743, 0.0118191, -0.0233273, 0.0505673, 0.0236974, -0.0707746, -0.0795096, 0.0666887, 0.0516632, -0.00210722, 0.0435425, -0.0534052, 0.0741764, 0.0370653, 0.0668539, -0.0885843, -0.0657197, -0.0288479, -0.0137213, -0.0673202, 0.0843871, 0.0103163, -0.061563, 0.0168256, 0.0448505, 0.0455929, -0.00433426, 0.0836843, 0.0748283, 0.0206059, 0.0248273, 0.0557541, 0.0435954, 0.0892231, 0.0655396, -0.0698558, 0.072406, -0.0725307, 0.0584636, 0.0452436, -0.0773314, 0.0652608, 0.0861011, -0.0626671, -0.0602748, -0.0531802, -0.0104271, 0.0294744, -0.0507319, 0.0199814, 0.00148894, -0.067697, 0.0174308, 0.0724438, 0.0583137, 0.0885904, -0.0688312, -0.0181317, 0.0362512, -0.00705665, 0.0687131, -0.0991302, -0.0901863, -0.00294972, 0.0225158, -0.0336149, 0.0699439, -0.0447673, 0.031243, 0.0269775, 0.0493077, -0.0496999, 0.0780796, 0.0910765, 0.0457279, -0.0197064, 0.0520717, -0.0333664, -0.0792642, 0.0399472, 0.0920197, 0.0550212, -0.050689, -0.0579763, -0.00319427, 0.0737844, 0.0835255, 0.0339371, 0.0170906, 0.000539951, 0.0469856, -0.0589585, 0.0987589, 0.09871, -0.0194119, -0.0981054, 0.0711, 0.0192733, 0.0486763, -0.017263, -0.0727249, -0.0848302, 0.0886416, -0.0471503, 0.0152081, -0.0653668, 0.027494, -0.0739197, -0.0733955, 0.08119, 0.00790462, -0.0446298, 0.0350812, -0.0110131, 0.0743744, 0.0807885, -0.074674, 0.0297201, -0.0999217, 0.0575829, 0.0504881, -0.0700502, -0.0488082, -0.0820098, 0.076637, 0.0399519, -0.0193791, 0.0256839, 0.0466564, 0.0550253, -0.0213865, 0.0207831, -0.0846293, 0.0978719, 0.0870635, -0.0993764, -0.00866074, 0.0855209, 0.029596, -0.0503086, -0.0409675, 0.013863, 0.0569697, -0.00176098, 0.0418736, 0.0109321, -0.0229945, 0.0552384, -0.0233469, 0.038698, -0.00708539, -0.0633987, -0.0547946, 0.0860322, 0.0668697, 0.0491781, -0.0442032, 0.00542787, -0.0295934, -0.00963673, 0.0329448, 0.0211794, -0.0411917, -0.0779758, -0.0716122, 0.0536631, -0.0326574, -0.0719091, -0.0623001, -0.0887017, -0.0477438, 0.00125249, -0.0108761, 0.0778128, 0.100321, -0.0952552, 0.000707187, -0.0870968, -0.0131101, 0.0976005, 0.0801322, -0.0764685, 0.0958586, 0.0151151, 0.0842758, 0.0475458, -0.0780536, -0.0214286, -0.0752534, 0.0863807, -0.0120518, -0.0285739, -0.0348386, -0.0994684, 0.0947689, -0.0227589, 0.0312799, -0.0929816, -0.0149003, -0.0195003, -0.0866819, -0.0548588, 0.0369188, -0.0877787, 0.00666653, -0.00871488, -0.0994964, -0.0239322, -0.0824269, 0.0122219, 0.0728702, -0.0968806, 0.0369045, -0.0191399, 0.0169613, -0.0234644, 0.0707965, 0.0134818, 0.0981985, -0.0164224, 0.0338682, -0.0725645, -0.0309318, -0.0133168, -0.098904, 0.0240123, 0.069993, 0.0567566, -0.0647949, 0.0332879, -0.00822525, -0.042139, -0.0735431, 0.0110719, 0.0258505, -0.0132808, 0.00818934, -0.0813525, 0.0141541, -0.0222101, 0.0105428, -0.040779, 0.00452309, -0.0994491, -0.0404542, 0.0891, 0.0893483, 0.0745358, -0.017686, 0.0134587, 0.0505041, 0.0148041, 0.0612944, -0.0774497, 0.0328796, -0.100275, -0.0222438, 0.02299, -0.035492, -0.00433026, 0.0579365, -0.0689776, -0.0702119, -0.0150291, 0.0721638, -0.00358484, -0.0835727, -0.0105885, -0.0841556, -0.0678585, 0.0206369, -0.0317626, 0.0117678, 0.0381418, -0.0671188, 0.0758169, -0.0761395, 0.0654099, -0.0421551, 0.0703437, 0.048306, 0.038424, 0.0922255, -0.0956116, -0.00927668, 0.0153677, -0.0550849, 0.0715769, -0.0916535, 0.0288979, 0.0273656, 0.0245819, 0.0209855, -0.0352614, 0.0523624, -0.0871301, 0.065721, 0.0532005, 0.041644, 0.0566339, 0.0416582, -0.0750408, -0.0126443, 0.0143789, 0.0911579, 0.0416531, 0.0250255, -0.0294927, -0.0496253, 0.0504511, -0.0994339, -0.0211919, 0.0417653, 0.100711, 0.0782133, 0.097236, 0.0798928, 0.0839619, 0.0304694, 0.0551355, -0.0340996, 0.0324662, -0.0741748, -0.0753745, 0.0970574, -0.0970466, -0.051543, -0.0947551, -0.00306297, 0.00941109, 0.0532241, 0.0905015, 0.0682819, -0.0333632, 0.00729297, -0.0781888, 0.0047867, -0.00557117, 0.0774834, 0.0811833, -0.0369686, -0.0427424, 0.0366672, 0.00935294, -0.0868937, -0.0195921, -0.0545427, 0.100253, 0.0817044, 0.0747741, 0.0647562, 0.0977015, -0.0176291, 0.0942588, 0.00730067, 0.0947706, 0.030336, 0.0264769, 0.0135765, 0.0564401, 0.0623137, -0.0347204, -0.0559688, 0.0240491, 0.0869928, -0.0729435, -0.100216, 0.052453, 0.0705859, -0.0801146, -0.037716, 0.00598174, 0.0697409, -0.0514975, -0.0714991, 0.081178, -0.100907, 0.0461396, -0.0988929, -0.0597361, 0.022119, -0.0950685, 0.0383486, 0.0772665, -0.0313515, 0.00218645, -0.0512825, -0.0149351, -0.00996212, 0.0357381, -0.0876048, 0.0689779, 0.0389045, 0.0318427, 0.00391447, 0.0532442, -0.072807, 0.0937788, -0.0292253, 0.0166383, 0.0377963, -0.0294007, 0.0210636, -0.0544131, -0.0771723, 0.0196132, 0.0498625, -0.0391105, 0.0727618, -0.0167329, -0.0374043, 0.0338466, -0.0899833, 0.0951255, 0.0438281, -0.0858225, -0.0702303, -0.00849164, 0.0376189, -0.0139666, 0.0456409, -0.0809867, -0.0505373, -0.0329357, -0.068989, -0.0236542, -0.0465638, 0.0611097, 0.0485981, 0.0271149, 0.0165469, 0.0981393, -0.0346868, -0.0844988, -0.0816711, 0.0596133, 0.0304437, 0.0636698, 0.010387, 0.0232063, 0.0458528, -0.0766702, -0.0518128, 0.0063502, -0.0518995, 0.0793046, -0.0725342, -0.0851765, 0.0249746, -0.023246, -0.0502942, -0.0640866, 0.0362896, -0.0312721, -0.0410835, 0.0347042, 0.0378623, 0.0381004, 0.0738579, -0.0616523, -0.0457654, 0.0343549, -0.0857805, 0.0944061, 0.01183, 0.0144553, 0.0247307, 0.0587466, -0.0549631, 0.065677, -0.0836119, 0.0860851, 0.0687518, -0.0468835, -0.0279919, 0.0253688, 0.0191181, -0.0537484, -0.022685, -0.0413796, -0.0720779, -0.0556778, 0.0719562, 0.0592628, 0.0509507, 0.0309491, 0.0433175, -0.00169075, -0.0100135, -0.0444263, 0.0186188, -0.0930787, 0.0485221, 0.014409, -0.0161879, -0.00791651, -0.0633724, -0.0487398, -0.0343992, -0.033656, 0.0849712, -0.100023, -0.0192719, 0.0907475, -0.0215594, 0.0926878, 0.0417966, 0.0808659, -0.0772764, 0.0239975, -0.0774067, 0.0958158, 0.0508689, 0.0508016, -0.0790902, 0.0811951, -0.0952988, -0.0575212, -0.0777785, 0.0833456, 8.99509e-05, -0.0906797, -0.0335312, -0.0175819, 0.0956117, 0.0866824, -0.0564445, -0.0162344, 0.0952343, 0.0287543, -0.0829779, -0.100649, 0.0182813, -0.0878527, -0.0706653, 0.0549653, -0.0607621, -0.0535191, -0.0341245, 0.0108752, -0.0793985, 0.012579, -0.0638565, 0.065199, -0.0938546, 0.0685883, -0.0177027, 0.0690911, -0.0231169, 0.0680661, 0.0598471, -0.033177, -0.00482992, 0.0414554, -0.0693926, 0.100598, 0.022477, -0.0220458, -0.00792892, 0.0174256, -0.0657133, 0.0675199, 0.00856364, 0.0616437, 0.061649, 0.0379089, 0.000353321, 0.0548271, 0.0473251, -0.00538608, 0.0324835, 0.0199076, 0.0816407, -0.0772717, 0.0847668, 0.100614, 0.0225685, 0.0504495, 0.0908095, -0.00414147, 0.00727322, 0.0258045, -0.0254844, 0.0414196, 0.00339193, -0.0569198, -0.0350465, -0.0355447, -0.0927355, -0.0453116, 0.0130778, -0.0765204, 0.0751119, 0.0681441, 0.0738348, 0.0183335, 0.0340121, -0.014673, 0.0482212, 0.0661037, -0.0445267, 0.000351168, 0.0832527, -0.0931509, 0.0229279, -0.0458595, 0.0547637, 0.0590454, -0.0540593, 0.093465, -0.096591, -0.0247634, -0.0553828, -0.0406756, -0.0868792, 0.0564653, -0.0869604, -0.0626309, -0.0423499, 0.0749685, 0.0494061, 0.0211686, 0.0159234, 0.079573, -0.08267, -0.0661496, 0.0989457, -0.0134746, -0.0719736, -0.0958504, 0.058335, 0.0923494, -0.0520865, 0.0914099, 0.0418119, 0.00789962, 0.075271, 0.0030058, -0.00898048, -0.0584896, -0.000964768, -0.0211307, 0.0236368, -0.0898499, 0.0385666, 0.0603303, 0.0109152, 0.099476, 0.0763769, -0.00912639, 0.0274269, 0.0326864, 0.036677, -0.100078, 0.0990887, -0.078074, 0.0948395, 0.03022, 0.0323328, -0.0669632, 0.0577056, -0.0950476, -0.0153183, 0.0374473, -0.0649071, -0.00647935, 0.0331651, -0.0163941, -0.0299844, -0.0948528, -0.0177865, -0.0427854, 0.0792487, 0.00343718, -0.0266818, -0.00567973, -0.0439763, 0.0860023, -0.0133754, 0.000302352, 0.0209975, -0.0477908, -0.02258, 0.0251984, -0.0651641, 0.0514148, 0.0163075, 0.0720363, 0.0687781, 0.0536012, -0.0987204, 0.0736931, 0.0903799, 0.0993716, -0.00935017, -0.0703172, 0.0240412, 0.0459092, -0.0787539, 0.0860719, -0.0876299, 0.00437011, 0.0497868, -0.0506391, -0.0891354, -0.0403338, -0.0916795, -0.0872452, -0.0845839, 0.0670246, 0.00929981, 0.0477412, -0.0641842, -0.0875987, -0.0869972, 0.100886, 0.020033, 0.0420241, -0.0638742, 0.0608506, -0.0466956, -0.0903561, 0.0783683, -0.0147604, -0.0377346, 0.0400793, 0.0114195, 0.0169146, 0.0108086, -0.0938581, 0.0625993, -0.0123293, 0.0988294, -0.0366519, 0.0145087, -0.0580266, -0.0121168, -0.0790152, 0.00433339, 0.0151218, 0.0068045, 0.022752, -0.0325467, 0.0764246, -0.0242822, -0.0622356, 0.0697538, 0.00186441, 0.0807776, -0.00383078, 0.0437485, 0.0204248, 0.0886369, 0.0134206, -0.0899548, 0.0873773, 0.0842074, 0.00561088, -0.0344447, -0.0766927, -0.0765793, -0.021549, 0.0200418, 0.0783131, -0.0943561, 0.0273987, -0.094534, -0.0772838, -0.0444055, 0.0214508, -0.0627757, 0.052434, 0.0464822, 0.0716587, 0.00102447, -0.0872125, -0.07712, 0.0423722, 0.0274302, 0.0190617, -0.09678, -0.0407047, -0.0588504, 0.085033, 0.0399603, 0.0717616, -0.0717859, 0.00484512, -0.0759061, 0.039433, 0.0252068, -0.00990028, -0.0188103, -0.0267237, 0.011095, -0.0813369, -0.0390019, 0.00987644, 0.0823782, -0.0269338, -0.0142083, -0.0274874, 0.0366719, 0.0196872, 0.0095091, 0.085644, -0.0203048, -0.0888026, 0.0652822, -0.00282332, -0.0950362, -0.0932801, -0.0712219, 0.0987107, 0.0100778, 0.0633411, -0.016782, -0.082051, -0.0637837, -0.0911708, -0.0738623, 0.0555177, 0.0256914, 0.0362631, -0.0923745, 0.0919393, 0.0968579, 0.00277852, -0.0130563, -0.0195617, 0.0380264, -0.0438284, -0.0511069, 0.0343925, 0.00671576, 0.00564586, 0.0688006, -0.0715049, 0.0291068, -0.0431537, -0.0098654, 0.0853815, 0.0244472, 0.0835859, -0.0221947, 0.0490206, 0.0837871, 0.0415123, 0.0865032, -0.0760911, 0.0621235, -0.0674724, 0.017812, 0.038733, 0.0424596, 0.0943578, -0.0848932, 0.0521763, -0.096333, 0.0445436, 0.0992779, -0.0389075, 0.0595493, 0.0652031, -0.0597266, 0.0616461, 0.0510926, -0.0182498, 0.0801563, -0.0153463, -0.0948771, 0.0173301, -0.0960484, -0.0642489, -0.0511651, 0.0440045, -0.0444447, 0.0747701, -0.00813004, 0.0798365, 0.0317506, -0.0789058, -0.00436943, 0.0488013, -0.000294723, 0.0375554, 0.0302705, 0.058329, -0.00990913, 0.0657923, 0.0419491, 0.044451, -0.0286346, 0.0305867, -0.0672273, 0.0998582, 0.0410005, -0.00820142, -0.0846321, -0.0909662, 0.0973267, -0.0726465, -0.0690769, -0.0946669, 0.0588063, -0.0554617, 0.094116, 0.0304372, -0.0141789, 0.0822964, -0.00591883, 0.100486, -0.00593257, -0.0993527, -0.080973, 0.0803799, 0.0137003, -0.0575135, 0.0347681, -0.0435897, -0.0246097, 0.00824715, 0.0312589, -0.091499, 0.0229135, -0.0770784, -0.00422403, 0.0408374, -0.0817975, -0.0160763, -0.0255675, -0.0663037, 0.0383289, 0.0355961, -0.0188401, -0.0604755, 0.0293701, 0.0537132, -0.081468, 0.015749, -0.0657474, -0.0960648, 0.0794684, -0.029161, -0.100965, 0.00655676, 0.0167913, 0.089762, -0.0589995, 0.0750347, -0.0141746, 0.0900419, -0.0826677, -0.0501829, -0.0427165, -0.0570644, 0.0518191, 0.0722251, -0.0270813, -0.0159997, 0.00215858, -0.00860934, 0.0477078, 0.0538538, 0.0450736, 0.0652823, 0.00504026, -0.0359881, -0.09227, -0.0593233, 0.0603951, 0.047146, -0.021091, 0.0801717, 0.0415355, -0.0302194, -0.053065, -0.0387579, 0.09422, 0.0968069, -0.00446449, 0.0276346, 0.0355676, 0.0871383, 0.0945078, -0.0427727, 0.0768909, -0.0178704, 0.0881885, 0.0687942, -0.00200933, -0.024354, -0.0582521, 0.0581918, 0.00819273, -0.022445, 0.0726395, -0.0556944, -0.0683443, -0.0726437, 0.00572189, 0.012892, 0.0454796, -0.0343337, -0.0384465, -0.0776929, -0.00383835, 0.0667051, -0.0807356, -0.0901506, 0.0766901, 0.0105481, 0.0951875, -0.0239289, 0.0647035, 0.013731, -0.0807041, -0.0589899, 0.0199565, 0.00334563, 0.059817, 0.0373724, 0.0668292, -0.0489635, -0.0507198, -0.0208311, -0.0110159, -0.0555298, 0.0796089, -0.0356662, 0.0341046, 0.0534871, -0.0996971, -0.0914883, 0.0680386, 0.0994556, 0.0866694, -0.031522, -0.0507967, 0.0277514, 0.0909978, -0.0762581, 0.0700223, 0.0462923, 0.0251297, 0.0927822, 0.0233393, 0.0983701, -0.0167987, 0.0765029, 0.0125557, 0.0378674, 0.0467553, -0.041551, 0.00164956, 0.100926, 0.0253753, -0.0674324, -0.0498467, 0.0670715, -0.00675624, 0.0790114, -0.0365063, 0.0784091, -0.0389321, -0.0819675, 0.0296764, -0.0384045, 0.0103023, 0.0753341, -0.0916835, -0.0608511, -0.0681816, 0.0195448, -0.028207, -0.0330101, -0.0579208, -0.0054481, -0.0092957, 0.0603933, -0.0308324, -0.055114, -0.0789958, -0.00819785, -0.082239, 0.068508, -0.0759153, 0.037597, -0.0579476, -0.0760115, -0.0868716, 0.08279, 0.0888051, -0.0628569, 0.0663841, 0.0419597, 0.032044, -0.0316273, 0.011995, -0.0425587, 0.0288777, 0.0790414, -0.0971821, 0.0871337, -0.00573821, 0.0254277, 0.0709853, -0.0647509, -0.0411298, 0.0862778, 0.0691829, -0.00038112, 0.00181216, 0.0763957, 0.0508244, -0.0686154, 0.0687017, 0.0234426, 0.0552226, -0.0774984, 0.0631032, -0.0352362, 0.0188065, -0.0276863, -0.0467747, -0.0506052, 0.0471474, 0.0172636, 0.00393301, 0.0413327, 0.00761807, 0.00621779, 0.0647016, -0.0597999, 0.0314085, 0.0178433, -0.0125592, 0.0464422, -0.0102582, 0.0941606, -0.0838197, 0.00379372, 0.0239379, -0.00976653, 0.0586237, -0.0732092, 0.0142294, 0.0597778, 0.01883, -0.0790475, 0.0370864, -0.0257578, -0.0763451, -0.0986717, -0.0284478, 0.0401011, 0.0327743, -0.0597767, -0.0922384, -0.0240256, 0.0309654, -0.0061911, -0.0112793, -0.0758676, 0.000691809, -0.0179579, -0.0974164, 0.060387, -0.077746, 0.0841886, 0.0723838, -0.0921606, 0.0538369, 0.0573586, -0.0903078, -0.100597, -0.0870898, -0.0614048, -0.0778569, -0.0954873, -0.0975766, 0.0361278, 0.0513413, -0.0443488, 0.0602277, -0.010428, 0.0899307, 0.0454646, -0.0941223, -0.0353025, 0.074734, 0.0867171, 0.0949077, 0.0574772, -0.00636121, -0.00367214, 0.0370411, 0.0641592, 0.028954, 0.00895922, -0.0384306, -0.0830477, 0.0914719, -0.0580208, -0.0971194, 0.0951479, 0.0828182, 0.00181396, 0.0784494, -0.0597389, -0.0736785, -0.0738498, 0.0412262, 0.0490203, -0.0862395, 0.0553803, 0.0568063, -0.0096667, -0.0197795, 0.0612581, -0.0292168, -0.0990259, -0.0879434, -0.0655797, -0.0661001, -0.0640597, -0.0126007, -0.0769496, 0.0305735, -0.0965966, -0.000755377, -0.0529859, -0.0398599, -0.0181417, 0.00485096, 0.0287047, 0.00816629, 0.0220772, -0.092766, -0.080192, -0.0148865, -0.0787366, 0.0206859, -0.0712213, 0.0102445, -0.0720776, -0.0159507, -0.0349139, -0.0355485, 0.0255203, 0.0581834, -0.0437942, 0.0279093, -0.0226142, -0.0571385, -0.0596422, 0.0230607, 0.0109264, 0.0438579, -0.0453224, -0.0408283, -0.0264674, -0.0262632, 0.0792224, 0.010104, -0.0202813, -0.0300589, -0.058409, -0.0279969, 0.018409, 0.0895033, 0.0950777, 0.0181349, 0.057735, -0.0850078, 0.0556891, 0.0230396, 0.0879161, 0.0156955, -0.00960538, 0.0529268, -0.0647299, -0.0930316, -0.0817659, -0.0129893, -0.055674, 0.00213004, -0.0425952, 0.0256527, -0.0953682, 0.0895699, -0.0336104, -0.0739081, 0.0516834, -0.00485062, 0.0747791, 0.0438102, 0.0662337, 0.000699177, 0.0754914, 0.0753678, 0.00462418, -0.00669149, -0.100627, -0.028681, -0.0558609, -0.0599951, -0.0412304, 0.0468854, -0.0213838, -0.0998565, 0.041329, 0.0749328, -0.0847096, 0.0975708, 0.00256845, -0.0152773, 0.0198297, 0.00648716, -0.00955408, 0.0828723, 0.00685775, -0.00835492, -0.0548681, 0.0660443, 0.0457505, -0.0206201, -0.0398196, 0.0685669, 0.00855162, 0.090683, -0.0448007, 0.0322505, 0.0531687, 0.0251497, -0.0260752, 0.076726, 0.0664028, 0.0553197, 0.0338079, 0.0805032, -0.0480649, 0.065804, 0.0807381, 0.0512642, -0.0137652, -0.0868335, 0.0909001, 0.0124053, 0.067035, -0.0946857, -0.0363465, -0.0787801, 0.0769634, -0.0909193, 0.05097, -0.0909945, -0.0765393, 0.0273957, -0.0082477, -0.0711195, -0.0169926, -0.0131189, -0.0774522, 0.0877454, 0.0345022, 0.0507324, -0.0214005, -0.0907266, 0.0858961, 0.000164695, -0.00674724, 0.0123112, 0.0344063, -0.0940875, 0.00360735, -0.0605412, 0.0766454, 0.0827572, -0.0912273, -0.00262247, -0.0749195, -0.0310357, -0.0783459, 0.0708651, -0.0356485, -0.00498637, 0.0603846, 0.0839589, -0.0753747, -0.0452813, 0.0393293, 0.0564125, -0.0407286, 0.00100847, 0.0249479, -0.0344419, -0.0542403, 0.0586741, -0.0998604, 0.0767637, -0.0491541, 0.0906791, 0.0457193, -0.020467, -0.0595419, -0.0959005, -0.100782, -0.0647498, -0.094369, -0.0679051, -0.0184435, 0.0943092, 0.030997, 0.0219266, -0.0551673, 0.0836972, 0.0127078, 0.059879, -0.0659106, -0.0332726, -0.0320389, 0.0165943, 0.0782284, 0.0122941, 0.0773772, -0.0215343, 0.0885051, -0.0140825, -0.0105001, 0.0626976, 0.049685, 0.025898, -0.0592035, 0.074131, 0.0902441, 0.0977522, -0.0470272, 0.0106691, -0.0381535, 0.00136758, 0.0295051, 0.0862532, -0.0942845, 0.0711481, 0.0584755, -0.0722845, 0.08039, 0.0258333, -0.0502126, -0.0247154, -0.0467956, -0.00201415, -0.0788039, -0.0152508, 0.0204021, -0.0628294, -0.0869855, 0.0139604, -0.0759555, -0.0573122, 0.0131371, -0.100975, -0.0437554, -0.0919218, -0.013134, 0.0479697, -0.0186908, -0.0579646, -0.0758914, -0.0128439, -0.0207717, 0.0774511, -0.014654, -0.0527657, -0.0319803, 0.0153705, 0.0264505, -0.0753578, -0.0971958, -0.0207252, -0.0413281, 0.00491682, -0.0688344, 0.0734367, 0.0661536, -0.0713495, -0.08642, -0.0917187, 0.0813201, 0.0137962, 0.0780987, -0.0415643, 0.0821782, -0.0182038, 0.0592393, -0.0040886, 0.0668071, -0.0379118, 0.0254852, -0.0667124, -0.00402355, -0.100169, 0.0494015, 0.0269947, 0.0756875, 0.0725285, 0.0889627, 0.0950472, -0.0839574, -0.0211813, 0.0189187, -0.0291509, -0.015802, -0.100755, 0.0397682, 0.0102777, -0.0147418, 0.093332, 0.0487734, 0.0852092, -0.0901252, -0.0967605, -0.0167193, 0.0462622, -0.0378819, 0.086238, 0.0435622, 0.0193095, 0.0890688, -0.0536884, -0.087667, -0.0157894, 0.0422145, -0.031495, 0.0305703, 0.0558147, 0.0515835, 0.0912957, -0.000677213, 0.0517377, -0.05525, -0.00826578, 0.096044, -0.011032, 0.0465308, -0.0953538, 0.0308801, 0.00121126, 0.0761621, -0.00380199, 0.0471414, -0.0852533, -0.0534611, -0.0679402, -0.0727132, -0.0819405, -0.0846677, -0.0548297, -0.0820021, 0.0550167, -0.00451056, 0.100632, -0.0398806, -0.0347871, -0.0526818, -0.0420068, -0.0827396, -0.0144692, 0.00709885, -0.0893912, 0.0689621, 0.0541494, -0.0446934, -0.0376364, 0.0725878, -0.00231815, 0.0436078, -0.0398412, 0.0282604, -0.00484933, 0.0869297, 0.0322265, -0.0298079, 0.0409309, 0.0296948, 0.031509, 0.0117163, 0.0264433, -0.0318496, -0.0158585, 0.0935166, -0.0321632, -0.0953012, 0.0823514, 0.0420651, -0.00738727, 0.0375836, -0.00134166, 0.0432663, 0.085728, -0.0141335, 0.0981714, -0.0941758, 0.0991626, -0.0485675, -0.0600276, -0.0351905, -0.0703664, 0.023426, 0.0354601, -0.0666575, 0.0686431, -0.0627702, 0.0609782, -0.0510331, 0.0887922, 0.0537703, 0.0637264, -0.0486793, -0.0038305, 0.0621423, 0.00505734, -0.045751, -0.0652227, 0.0114587, 0.0735075, 0.0108001, -0.0418206, 0.0333219, -0.0808142, -0.0130174, -0.00457746, -0.0483482, -0.0267419, 0.00813872, 0.0771962, 0.06024, -0.0545519, -0.0563234, -0.0877913, -0.0928825, 0.00377771, 0.0537875, -0.0537773, -0.00944517, 0.0758973, -0.0331881, 0.0835104, -0.0929, 0.0693006, 0.00884997, -0.0492872, -0.0227164, 0.0192379, 0.0723525, -0.0858306, 0.0826553, -0.0437039, 0.0484362, 0.0846225, -0.0744424, 0.0301626, 0.0857965, 0.0421312, -0.0741648, -0.0431202, -0.0875822, 0.0245668, -0.0503482, 0.0297504, 0.0758723, 0.035654, 0.0445795, 0.0194003, 0.0768145, -0.0791384, 0.0789353, 0.0891507, -0.0660418, -0.0304668, -0.00923009, 0.0760707, 0.0499604, -0.0925663, -0.0916792, -0.0821781, 0.0181489, 0.0876563, 0.0154878, 0.0158366, 0.0988749, -0.069857, 0.0711668, 0.00587518, 0.067221, 0.0996794, -0.0118737, -0.049249, 0.019963, -0.0940441, -0.0309266, -0.00790974, -0.081666, 0.095713, -0.0707986, -0.00413728, 0.0418583, 0.0909405, -0.0487146, -0.0731953, -0.0631244, -6.7912e-05, -0.0808013, 0.0870405, -0.0561487, 0.0851776, 0.00258212, 0.025486, -0.0782671, -0.010476, -0.0563194, 0.026453, -0.00926115, 0.0616414, 0.0308189, 0.0972064, -0.0894081, -0.0944338, 0.0796011, 0.0407968, 0.00226463, 0.0584666, 0.0875109, 0.0327175, -0.0766514, 0.011664, 0.0568052, 0.0543598, -0.025993, -0.0831649, -0.0970473, 0.0633172, 0.0165065, -0.0522227, -0.0902796, -0.0313609, 0.0974731, -0.0193468, 0.0891174, 0.0797184, -0.0688374, 0.069357, 0.0711038, -0.0274092, -0.0631274, 0.0434325, -0.0160687, -0.00530594, -0.0565201, 0.0226166, 0.00819231, -0.0532927, 0.0106029, 0.00626232, -0.0999331, -0.0434234, 0.0245289, 0.0704428, -0.0735715, -0.0906846, -0.046829, 0.0677812, 0.0908516, -0.00903358, 0.0267895, -0.0990694, -0.0812542, -0.0248971, 0.0956375, -0.0578053, 0.0588635, 0.0213512, 0.061582, 0.0829486, -0.0365593, -0.0372998, 0.030718, 0.000825003, -0.0930332, 0.0433484, 0.0954722, 0.0555165, 0.00835601, -0.0141645, -0.0710282, 0.0284659, 0.00428205, 0.061995, 0.0941973, -0.0590942, 0.0372017, 0.0488629, 0.0125304, -0.0473411, -0.0269726, -0.0291571, 0.0805082, 0.0141256, -0.0722024, 0.0620764, 0.00927602, 0.0597869, 0.0870108, -0.0030079, 0.00947881, 0.0611476, -0.0353762, 0.0645196, -0.0448637, 0.0904909, -0.0699787, -0.0853156, 0.0485954, -0.0660447, 0.0979397, -0.00845373, 0.0663124, -0.0179116, -0.042667, 0.0897549, 0.0890636, -0.0974674, 0.00119582, 0.100772, 0.00257684, -0.0855599, -0.0691898, 0.0778255, 0.0110154, 0.0852058, -0.000914901, -0.0783805, 0.0286792, 0.0581652, -0.0651813, -0.089479, -0.0584552, 0.0423376, -0.0226086, -0.0473841, 0.0406749, -0.0807381, 0.0783675, 0.0736976, 0.0328685, 0.000175677, 